\data\
ngram 1=2174
ngram 2=5258
ngram 3=8196
ngram 4=10736
ngram 5=12940
ngram 6=14840
ngram 7=16599

\1-grams:
-3.7554684	<unk>	0
0	<s>	-0.8494078
-3.6470199	</s>	0
-3.2268984	require	-0.29187003
-1.0486134	SPACE	-0.34215587
-3.6470199	'barbeque_client/configuration'	-0.08644695
-1.0421945	NEWLINE	-1.3760332
-3.6470199	'barbeque_client/client'	-0.08644695
-3.6470199	'barbeque_client/version'	-0.08644695
-3.6470199	'barbeque_client/executor'	-0.08644695
-3.5306058	begin	-0.13413781
-3.6470199	'rails'	-0.08644695
-3.5306058	rescue	-0.13413781
-3.6470199	LoadError	-0.08644695
-3.5306058	else	-0.13413781
-3.6470199	'barbeque_client/railtie'	-0.08644695
-3.3948267	end	-0.29187003
-3.3948267	module	-0.389651
-3.5306058	BarbequeClient	-0.10176929
-3.1060994	class	-0.21210915
-3.6470199	<<	-0.08644695
-3.2268984	self	-0.32146057
-3.5306058	def	-0.13413781
-3.5306058	configure	-0.08644692
-3.6470199	yield	-0.08644695
-3.2268984	config	-0.10489973
-3.6470199	@config	-0.08644695
-3.6470199	||	-0.08644695
-2.7609053	=	-0.27481475
-3.5306058	Configuration	-0.10963808
-1.4849935	.	-0.26091555
-3.6470199	new	-0.08644695
-3.1060994	#SPACE	-0.09646167
-3.6470199	@paramSPACE	-0.08644692
-3.1060994	[String]SPACE	-0.10489973
-3.3948267	jobSPACE	-0.08644695
-2.7609053	-SPACE	-0.1447488
-3.6470199	JobSPACE	-0.08644692
-3.1060994	nameSPACE	-0.10489973
-2.0476308	toSPACE	-0.13795497
-3.6470199	enqueue.	-0.08644695
-3.5306058	[Object]SPACE	-0.13413781
-3.1060994	messageSPACE	-0.10489973
-3.6470199	AnSPACE	-0.08644695
-3.5306058	objectSPACE	-0.08644695
-3.5306058	whichSPACE	-0.08644695
-2.3208299	isSPACE	-0.12719238
-3.6470199	serializableSPACE	-0.08644695
-3.1060994	asSPACE	-0.08644695
-3.6470199	JSON.	-0.08644695
-3.5306058	optionalSPACE	-0.13413781
-3.5306058	queueSPACE	-0.08644695
-3.6470199	ASPACE	-0.08644695
-3.6470199	enqueueSPACE	-0.08644695
-2.5135005	aSPACE	-0.08644695
-3.6470199	job.	-0.08644695
-3.6470199	@returnSPACE	-0.08644695
-3.6470199	[Hashie::Mash]SPACE	-0.08644695
-3.6470199	resonseSPACE	-0.08644695
-3.3948267	{SPACE	-0.08644692
-3.6470199	message_id:SPACE	-0.08644695
-3.6470199	String,SPACE	-0.08644695
-3.6470199	status:SPACE	-0.08644695
-3.5306058	StringSPACE	-0.08644695
-2.396161	}	-0.36977747
-3.5306058	enqueue	-0.13413781
-1.6031572	(	-0.26273933
-3.3948267	job	-0.11442871
-2.1878328	:	-1.0788611
-1.5651253	,	-1.8073994
-3.3948267	message	-0.17922273
-3.6470199	queue	-0.08644695
-3.1060994	nil	-0.17828885
-1.3801419	)	-1.5026125
-3.0116923	response	-0.19582
-3.3948267	client	-0.19126518
-3.5306058	create_execution	-0.13413781
-3.2268984	body	-0.19729963
-3.3948267	message_idSPACE	-0.08644695
-3.6470199	execution'sSPACE	-0.08644695
-3.5306058	checkSPACE	-0.08644692
-3.1060994	status	-0.106999286
-3.3948267	statusSPACE	-0.08644692
-3.5306058	likeSPACE	-0.08644695
-3.6470199	"success",SPACE	-0.08644695
-3.6470199	"pending",SPACE	-0.08644695
-3.6470199	"failure",SPACE	-0.08644695
-3.3948267	...	-0.08644692
-3.0116923	message_id	-0.16992034
-3.5306058	execution	-0.10963808
-3.6470199	@client	-0.08644695
-3.3948267	Client	-0.11765208
-3.1060994	application	-0.19086978
-3.5306058	default_queue	-0.10489973
-3.1060994	endpoint	-0.10318943
-3.6470199	ActiveJob	-0.08644695
-3.6470199	QueueAdapters	-0.08644695
-3.6470199	BarbequeAdapter	-0.08644695
-3.6470199	InterfaceSPACE	-0.08644695
-2.3038752	forSPACE	-0.09272182
-3.6470199	ActiveJobSPACE	-0.08644695
-3.6470199	5.0	-0.08644695
-3.6470199	4.2	-0.08644695
-3.5306058	to_s	-0.10489973
-2.2278044	::	-0.13152301
-3.6470199	Arguments	-0.08644695
-3.6470199	serialize	-0.08644695
-3.6470199	arguments	-0.08644695
-3.3948267	queue_name	-0.11765208
-3.6470199	job_id	-0.08644695
-3.6470199	enqueue_at	-0.08644695
-3.6470199	timestamp	-0.08644695
-3.6470199	raise	-0.08644695
-3.5306058	NotImplementedError	-0.08644695
-3.6470199	'CurrentlySPACE	-0.08644695
-3.5306058	settingSPACE	-0.08644695
-3.3948267	timestampSPACE	-0.08644692
-2.674781	notSPACE	-0.0909872
-3.6470199	supported'	-0.08644695
-3.6470199	'garage_client'	-0.08644695
-3.6470199	'json'	-0.08644695
-3.6470199	initialize	-0.08644695
-3.6470199	@application	-0.08644695
-3.6470199	@default_queue	-0.08644695
-3.6470199	@endpoint	-0.08644695
-3.6470199	[Faraday::Response]	-0.08644695
-3.2268984	params	-0.19086978
-3.6470199	{	-0.08644695
-3.5306058	result	-0.08644692
-3.5306058	garage_client	-0.08644692
-3.5306058	post	-0.11765208
-3.5306058	'/v2/job_executions'	-0.11765208
-3.2268984	retry	-0.13413781
-3.5306058	[Integer]SPACE	-0.08644692
-3.6470199	delay_secondsSPACE	-0.08644695
-3.6470199	RetrySPACE	-0.08644695
-3.6470199	delaySPACE	-0.08644695
-2.487359	inSPACE	-0.0909872
-3.6470199	seconds.SPACE	-0.08644695
-3.6470199	MaximumSPACE	-0.08644695
-3.6470199	900s.	-0.08644695
-3.5306058	retry_execution	-0.13413781
-3.5306058	delay_seconds	-0.10489973
-3.6470199	0	-0.08644695
-1.6132094	"	-0.43068433
-3.6470199	/v1/job_executions/	-0.08644695
-2.4172287	#{	-0.22763224
-3.6470199	/retries	-0.08644695
-3.6470199	optioanlSPACE	-0.08644695
-3.5306058	fieldsSPACE	-0.08644695
-3.5306058	ResponseSPACE	-0.08644695
-3.6470199	specificationSPACE	-0.08644695
-3.6470199	Garage	-0.08644695
-3.6470199	fields	-0.08644695
-3.5306058	if	-0.13413781
-2.396161	[	-0.12933502
-3.6470199	:fields	-0.08644695
-1.920665	]	-1.0840383
-3.5306058	get	-0.11765208
-3.6470199	private	-0.08644695
-3.6470199	@garage_client	-0.08644695
-3.1060994	GarageClient	-0.26362386
-3.1060994	path_prefix	-0.08644695
-3.6470199	'/'	-0.08644695
-3.6470199	'default'	-0.08644695
-3.6470199	attr_accessor	-0.08644695
-3.5306058	*	-0.09954704
-3.5306058	%	-0.13413781
-3.6470199	i	-0.08644695
-3.5306058	Executor	-0.08644692
-3.5306058	classSPACE	-0.08644695
-2.8684423	name	-0.15271977
-3.6470199	JSON-serializedSPACE	-0.08644695
-3.3948267	object	-0.11765208
-3.6470199	SQSSPACE	-0.08644695
-3.6470199	mesasge_id	-0.08644695
-3.6470199	queue_nameSPACE	-0.08644695
-3.6470199	barbeque'sSPACE	-0.08644695
-3.6470199	job_queues.name	-0.08644695
-3.6470199	@job	-0.08644695
-3.6470199	@message	-0.08644695
-3.5306058	JSON	-0.08644692
-3.5306058	load	-0.08644695
-3.6470199	@message_id	-0.08644695
-3.6470199	@queue_name	-0.08644695
-3.5306058	run	-0.13413781
-3.5306058	Base	-0.10489973
-3.5306058	execute	-0.13413781
-3.6470199	'job_class'	-0.08644695
-3.6470199	>	-0.08644695
-3.6470199	'job_id'	-0.08644695
-3.6470199	'queue_name'	-0.08644695
-3.6470199	'arguments'	-0.08644695
-3.5306058	ExponentialRetry	-0.10489973
-3.6470199	MAX_DELAY_SECONDS	-0.08644695
-3.2268984	ENV	-0.38878003
-3.6470199	'BARBEQUE_MAX_RETRY_DELAY'	-0.08644695
-3.6470199	900	-0.08644695
-3.6470199	to_i	-0.08644695
-3.6470199	https://github.com/mperham/sidekiq/blob/v4.1.2/lib/sidekiq/middleware/server/retry_jobs.rb#L176-L179	-0.08644695
-3.6470199	seconds	-0.08644695
-3.6470199	exponential_backoff	-0.08644695
-3.5306058	count	-0.10963808
-3.6470199	**	-0.08644695
-3.6470199	4	-0.08644695
-3.6470199	+	-0.08644695
-3.6470199	15	-0.08644695
-3.5306058	rand	-0.13413781
-3.6470199	30	-0.08644695
-3.5306058	1	-0.10176929
-3.5306058	countSPACE	-0.08644695
-3.6470199	CountSPACE	-0.08644695
-2.4627023	ofSPACE	-0.120481074
-3.5306058	@count	-0.08644695
-3.6470199	min	-0.08644695
-3.3948267	ActiveSupport	-0.11765208
-3.6470199	on_load	-0.08644695
-3.6470199	:active_job	-0.08644695
-2.9341877	do	-0.59290004
-3.6470199	'active_job/queue_adapters/barbeque_adapter'	-0.08644695
-3.6470199	'barbeque_client/retryable'	-0.08644695
-3.5306058	Railtie	-0.11765208
-3.6470199	<	-0.08644695
-3.0116923	Rails	-0.35763535
-3.6470199	rake_tasks	-0.08644695
-3.6470199	'barbeque_client/tasks/execute.rake'	-0.08644695
-3.6470199	'barbeque_client/exponential_retry'	-0.08644695
-3.5306058	Retryable	-0.13413781
-3.5306058	extend	-0.08644695
-3.6470199	Concern	-0.08644695
-3.6470199	EmptyRetryCount	-0.08644695
-3.6470199	StandardError	-0.08644692
-3.2268984	;	-0.5145897
-3.6470199	ClassMethods	-0.08644695
-3.6470199	barbeque_retry	-0.08644695
-3.5306058	limit	-0.11765208
-3.5306058	retryable_exceptions	-0.08644695
-3.5306058	exceptions	-0.13413781
-3.3948267	Array	-0.10489973
-3.6470199	wrap	-0.08644695
-3.6470199	rescue_from	-0.08644695
-2.3760684	|	-0.3240025
-3.2268984	exception	-0.10489973
-3.6470199	unless	-0.08644695
-3.6470199	'BARBEQUE_RETRY_COUNT'	-0.08644695
-3.6470199	'ENV["BARBEQUE_RETRY_COUNT"]SPACE	-0.08644695
-3.5306058	set'	-0.08644695
-3.6470199	'sinatra/base'	-0.08644695
-3.6470199	'securerandom'	-0.08644695
-3.6470199	FakeSPACE	-0.08644695
-3.6470199	APISPACE	-0.08644695
-3.6470199	runSPACE	-0.08644695
-3.6470199	locally	-0.08644695
-3.6470199	Runner	-0.08644695
-3.6470199	Sinatra	-0.08644695
-3.5306058	set	-0.08644695
-3.6470199	:port	-0.08644695
-3.6470199	'PORT'	-0.08644695
-3.6470199	3003	-0.08644695
-3.1060994	globalSPACE	-0.10489973
-3.6470199	variable	-0.08644695
-3.5306058	messages	-0.08644695
-3.6470199	@messages	-0.08644695
-3.6470199	'/v1/job_executions'	-0.08644695
-3.6470199	parse	-0.08644695
-3.1060994	request	-0.19126518
-3.5306058	read	-0.11765208
-3.6470199	SecureRandom	-0.08644695
-3.6470199	uuid	-0.08644695
-3.5306058	pid	-0.08644695
-3.6470199	spawn	-0.08644695
-3.6470199	'bundle'	-0.08644695
-3.6470199	'exec'	-0.08644695
-3.6470199	'rake'	-0.08644695
-3.6470199	'barbeque:execute'	-0.08644695
-3.6470199	BARBEQUE_MESSAGE_ID=	-0.08644695
-3.6470199	BARBEQUE_JOB=	-0.08644695
-3.6470199	'job'	-0.08644695
-3.6470199	BARBEQUE_MESSAGE=	-0.08644695
-3.6470199	'message'	-0.08644695
-3.6470199	BARBEQUE_RETRY_COUNT=0	-0.08644695
-3.6470199	in	-0.08644695
-3.6470199	:close	-0.08644695
-3.6470199	Process	-0.08644695
-3.6470199	detach	-0.08644695
-3.6470199	content_type	-0.08644695
-3.5306058	:json	-0.08644695
-3.6470199	'pending'	-0.08644695
-3.6470199	to_json	-0.08644692
-3.6470199	'/v1/job_executions/:message_id'	-0.08644695
-3.6470199	'message_id'	-0.08644695
-3.6470199	wait_thr	-0.08644695
-3.6470199	nil?	-0.08644695
-3.6470199	elsif	-0.08644695
-3.6470199	alive?	-0.08644695
-3.6470199	'working'	-0.08644695
-2.811354	value	-0.23850311
-3.6470199	exitstatus	-0.08644695
-3.6470199	==	-0.08644695
-3.6470199	'success'	-0.08644695
-3.6470199	'failed'	-0.08644695
-3.6470199	'/v1/job_executions/:message_id/retries'	-0.08644695
-3.6470199	TODO:SPACE	-0.08644695
-3.6470199	SaveSPACE	-0.08644695
-2.9341877	onSPACE	-0.09788772
-3.6470199	"/v1/job_executions"SPACE	-0.08644695
-2.4172287	andSPACE	-0.09039228
-3.6470199	stopSPACE	-0.08644695
-3.6470199	skippingSPACE	-0.08644695
-3.6470199	retry.	-0.08644695
-3.6470199	puts	-0.08644695
-3.6470199	ReceivedSPACE	-0.08644695
-3.6470199	retry:SPACE	-0.08644695
-3.6470199	(retrySPACE	-0.08644695
-3.6470199	skipped)	-0.08644695
-3.5306058	VERSION	-0.08644692
-3.6470199	'0.8.2'	-0.08644695
-3.2268984	describe	-0.5145897
-3.6470199	'.configure'	-0.08644695
-3.3948267	it	-0.11765208
-3.6470199	'updatesSPACE	-0.08644695
-3.6470199	.config'	-0.08644695
-3.6470199	expect	-0.08644695
-3.5306058	c	-0.08644695
-3.5306058	'blog'	-0.08644692
-3.6470199	'blog-default'	-0.08644695
-3.6470199	'https://barbeque.example.com'	-0.08644692
-3.3948267	to	-0.08644695
-3.6470199	change	-0.08644695
-3.6470199	map	-0.08644695
-3.5306058	attribute	-0.08644695
-3.6470199	public_send	-0.08644695
-3.6470199	from	-0.08644695
-3.6470199	$LOAD_PATH	-0.08644695
-3.6470199	unshift	-0.08644695
-3.5306058	File	-0.13413781
-3.6470199	expand_path	-0.08644695
-3.6470199	'../../lib'	-0.08644695
-3.6470199	__FILE__	-0.08644695
-3.6470199	'barbeque_client'	-0.08644695
-3.6470199	'RAILS_ENV'	-0.08644695
-3.6470199	'test'	-0.08644695
-3.6470199	'./dummy/config/environment'	-0.08644695
-3.6470199	__dir__	-0.08644695
-3.6470199	'rspec/rails'	-0.08644695
-3.6470199	RSpec	-0.08644695
-3.5306058	around	-0.11765208
-3.3948267	e	-0.10489973
-3.5306058	original_env	-0.08644695
-3.6470199	to_h	-0.08644695
-3.6470199	dup	-0.08644695
-3.6470199	ensure	-0.08644695
-3.6470199	replace	-0.08644695
-3.6470199	let	-0.08644695
-3.5306058	:client	-0.08644692
-3.6470199	described_class	-0.08644695
-3.6470199	:application	-0.08644695
-3.6470199	'cookpad'	-0.08644695
-3.6470199	:default_queue	-0.08644695
-3.6470199	'main'	-0.08644695
-3.3948267	:endpoint	-0.08644695
-3.5306058	:garage_client	-0.08644695
-3.6470199	double	-0.08644695
-3.6470199	'GarageClient::Client'	-0.08644695
-3.6470199	:result	-0.08644695
-3.6470199	'GarageClient::Response'	-0.08644695
-3.6470199	'Faraday::Response'	-0.08644695
-3.5306058	before	-0.08644695
-3.6470199	allow	-0.08644695
-3.6470199	receive	-0.08644695
-3.6470199	:new	-0.08644695
-3.5306058	and_return	-0.13413781
-3.6470199	'#create_execution'	-0.08644695
-3.6470199	:message	-0.08644695
-3.6470199	user_id	-0.08644695
-3.6470199	context	-0.08644695
-3.6470199	'whenSPACE	-0.08644695
-3.5306058	barbequeSPACE	-0.08644692
-3.6470199	alive'	-0.08644695
-3.6470199	:job	-0.08644695
-3.6470199	'NotifyAuthor'	-0.08644695
-3.6470199	'enqueuesSPACE	-0.08644695
-3.5306058	barbeque'	-0.13413781
-3.6470199	:post	-0.08644695
-3.5306058	with	-0.10963808
-3.6470199	'givenSPACE	-0.08644692
-3.6470199	customSPACE	-0.08644695
-3.6470199	queue'	-0.08644695
-3.6470199	:queue	-0.08644695
-3.6470199	'bargain'	-0.08644695
-2.3568642	withSPACE	-0.088603035
-2.9341877	specifiedSPACE	-0.09788772
-3.6470199	parameters'	-0.08644695
-3.6470199	respondsSPACE	-0.08644695
-3.2268984	error'	-0.5145897
-3.6470199	and_raise	-0.08644695
-3.5306058	BadRequest	-0.08644692
-3.6470199	'{"status_code":400,"error_code":"invalid_parameter","message":"params[:job]SPACE	-0.08644695
-3.3948267	mustSPACE	-0.08644695
-2.8684423	beSPACE	-0.08644695
-3.6470199	validSPACE	-0.08644695
-3.6470199	String"}'	-0.08644695
-3.6470199	'raisesSPACE	-0.08644695
-3.6470199	GarageClient::Error'	-0.08644695
-3.6470199	raise_error	-0.08644692
-3.5306058	Error	-0.10176929
-3.6470199	'#retry_execution'	-0.08644695
-3.6470199	:message_id	-0.08644695
-3.6470199	'retriesSPACE	-0.08644695
-3.1060994	message'	-0.6114998
-3.5306058	delay_seconds'	-0.13413781
-3.6470199	:delay_seconds	-0.08644695
-3.6470199	delay'	-0.08644695
-3.6470199	invalidSPACE	-0.08644695
-3.6470199	901	-0.08644695
-3.6470199	'{"status":400,"error":"invalid_parameter"}'	-0.08644695
-3.6470199	'#execution'	-0.08644695
-3.5306058	:response	-0.08644695
-3.6470199	:get	-0.08644695
-3.6470199	'returnsSPACE	-0.086446986
-3.1060994	anSPACE	-0.08644695
-3.5306058	execution'	-0.13413781
-3.6470199	eq	-0.08644695
-3.6470199	'{"status":404,"error":"NotSPACE	-0.08644695
-3.6470199	Found"}'	-0.08644695
-3.6470199	'#run'	-0.08644695
-3.6470199	'TestJob'	-0.08644695
-3.6470199	:args	-0.08644695
-3.6470199	'foo'	-0.08644695
-3.6470199	'bar'	-0.08644695
-3.6470199	:queue_name	-0.08644695
-3.6470199	:executor	-0.08644695
-3.6470199	dump	-0.08644695
-3.3948267	args	-0.23269661
-3.6470199	:test_job	-0.08644695
-3.5306058	TestJob	-0.08644692
-3.6470199	test_job	-0.08644695
-3.6470199	'performsSPACE	-0.08644695
-3.6470199	job'	-0.08644695
-3.6470199	:perform	-0.08644695
-3.6470199	executor	-0.08644695
-3.6470199	'#retry'	-0.08644695
-3.6470199	:fixed_rand_30	-0.08644695
-3.6470199	:count	-0.08644695
-3.6470199	5	-0.08644695
-3.6470199	'BarbequeClient::Client'	-0.08644695
-3.6470199	:rand	-0.08644695
-3.6470199	fixed_rand_30	-0.08644695
-3.6470199	'callsSPACE	-0.08644695
-3.6470199	retry_executionSPACE	-0.08644695
-3.6470199	exponentialSPACE	-0.08644695
-3.6470199	backoff'	-0.08644695
-3.6470199	:retry_execution	-0.08644695
-3.6470199	ApplicationController	-0.08644695
-3.6470199	ActionController	-0.08644695
-3.6470199	PreventSPACE	-0.08644695
-3.6470199	CSRFSPACE	-0.08644695
-3.6470199	attacksSPACE	-0.08644695
-3.0116923	bySPACE	-0.09954704
-3.6470199	raisingSPACE	-0.08644695
-3.6470199	exception.	-0.08644695
-3.6470199	ForSPACE	-0.08644695
-3.6470199	APIs,SPACE	-0.08644695
-2.7609053	youSPACE	-0.15045856
-3.5306058	maySPACE	-0.08644695
-3.5306058	wantSPACE	-0.13413781
-3.1060994	useSPACE	-0.08644695
-3.6470199	:null_sessionSPACE	-0.08644695
-3.6470199	instead.	-0.08644695
-3.6470199	protect_from_forgery	-0.08644695
-3.6470199	:exception	-0.08644695
-3.6470199	ApplicationHelper	-0.08644695
-3.6470199	include	-0.08644695
-3.6470199	queue_as	-0.08644695
-3.6470199	:test_queue	-0.08644695
-3.6470199	Timeout	-0.08644695
-3.6470199	perform	-0.08644695
-3.6470199	DoSPACE	-0.08644695
-3.6470199	somethingSPACE	-0.08644695
-3.6470199	later	-0.08644695
-3.6470199	'../boot'	-0.08644695
-3.6470199	rails	-0.08644695
-3.6470199	PickSPACE	-0.08644695
-2.3384733	theSPACE	-0.10827278
-3.6470199	frameworksSPACE	-0.08644695
-3.6470199	want:	-0.08644695
-3.6470199	active_model/railtie	-0.08644695
-3.6470199	active_job/railtie	-0.08644695
-3.6470199	requireSPACE	-0.08644695
-3.6470199	"active_record/railtie"	-0.08644695
-3.6470199	action_controller/railtie	-0.08644695
-3.6470199	action_mailer/railtie	-0.08644695
-3.6470199	action_view/railtie	-0.08644695
-3.6470199	sprockets/railtie	-0.08644695
-3.6470199	"rails/test_unit/railtie"	-0.08644695
-3.6470199	RequireSPACE	-0.08644695
-3.5306058	gemsSPACE	-0.13413781
-3.6470199	listedSPACE	-0.08644695
-3.6470199	Gemfile,SPACE	-0.08644695
-3.6470199	includingSPACE	-0.08644695
-3.5306058	anySPACE	-0.08644695
-3.6470199	gems	-0.08644695
-3.6470199	you'veSPACE	-0.08644695
-3.6470199	limitedSPACE	-0.08644695
-3.6470199	:test,SPACE	-0.08644695
-3.6470199	:development,SPACE	-0.08644695
-3.0116923	orSPACE	-0.10176929
-3.6470199	:production.	-0.08644695
-3.6470199	Bundler	-0.08644695
-3.6470199	groups	-0.08644695
-3.6470199	Dummy	-0.08644695
-3.5306058	Application	-0.08644695
-3.6470199	SettingsSPACE	-0.08644695
-3.6470199	config/environments/*SPACE	-0.08644695
-3.5306058	takeSPACE	-0.13413781
-3.6470199	precedenceSPACE	-0.08644695
-3.5306058	overSPACE	-0.08644695
-3.5306058	thoseSPACE	-0.08644692
-3.6470199	here.	-0.08644695
-3.6470199	ApplicationSPACE	-0.08644695
-3.2268984	configurationSPACE	-0.08644695
-3.2268984	shouldSPACE	-0.08644695
-3.6470199	goSPACE	-0.08644695
-3.6470199	intoSPACE	-0.08644695
-3.3948267	filesSPACE	-0.11765208
-3.6470199	config/initializers	-0.08644695
-3.6470199	--SPACE	-0.08644695
-2.811354	allSPACE	-0.10489973
-3.6470199	.rbSPACE	-0.08644695
-3.0116923	thatSPACE	-0.08644692
-3.6470199	directorySPACE	-0.08644695
-2.7609053	areSPACE	-0.08644695
-3.5306058	automaticallySPACE	-0.08644695
-3.5306058	loaded.	-0.13413781
-3.6470199	SetSPACE	-0.08644692
-3.6470199	Time.zoneSPACE	-0.08644695
-2.8684423	defaultSPACE	-0.08644695
-3.5306058	zoneSPACE	-0.08644695
-3.5306058	makeSPACE	-0.08644695
-3.6470199	ActiveSPACE	-0.08644695
-3.5306058	RecordSPACE	-0.08644695
-3.6470199	auto-convertSPACE	-0.08644695
-2.8684423	thisSPACE	-0.08644695
-3.6470199	zone.	-0.08644695
-3.6470199	RunSPACE	-0.08644695
-3.5306058	"rakeSPACE	-0.08644695
-3.6470199	-DSPACE	-0.08644695
-3.6470199	time"SPACE	-0.08644695
-3.6470199	listSPACE	-0.08644695
-3.5306058	tasksSPACE	-0.08644695
-3.6470199	findingSPACE	-0.08644695
-3.5306058	timeSPACE	-0.08644695
-3.6470199	names.SPACE	-0.08644695
-3.6470199	DefaultSPACE	-0.08644695
-3.6470199	UTC.	-0.08644695
-3.6470199	config.time_zoneSPACE	-0.08644695
-2.5413167	=SPACE	-0.13264422
-3.6470199	'CentralSPACE	-0.08644695
-3.6470199	TimeSPACE	-0.08644695
-3.6470199	(USSPACE	-0.08644695
-3.6470199	&SPACE	-0.08644695
-3.6470199	Canada)'	-0.08644695
-3.6470199	TheSPACE	-0.08644695
-3.2268984	localeSPACE	-0.08644695
-3.6470199	:enSPACE	-0.08644695
-3.6470199	translationsSPACE	-0.08644695
-3.0116923	fromSPACE	-0.10176929
-3.6470199	config/locales/*.rb,ymlSPACE	-0.08644695
-3.6470199	autoSPACE	-0.08644695
-3.6470199	config.i18n.load_pathSPACE	-0.08644695
-3.5306058	+=SPACE	-0.08644695
-3.6470199	Dir[Rails.root.join('my',SPACE	-0.08644695
-3.6470199	'locales',SPACE	-0.08644695
-3.6470199	'*.{rb,yml}').to_s]	-0.08644695
-3.6470199	config.i18n.default_localeSPACE	-0.08644695
-3.6470199	:de	-0.08644695
-3.6470199	'BUNDLE_GEMFILE'	-0.08644695
-3.6470199	'../../Gemfile'	-0.08644695
-3.6470199	'bundler/setup'	-0.08644695
-3.5306058	upSPACE	-0.08644695
-3.6470199	Gemfile.	-0.08644695
-3.6470199	LoadSPACE	-0.08644695
-3.3948267	RailsSPACE	-0.08644695
-3.6470199	application.	-0.08644695
-3.6470199	'../application'	-0.08644695
-3.6470199	InitializeSPACE	-0.08644695
-3.6470199	initialize!	-0.08644695
-3.6470199	routes	-0.08644695
-3.6470199	draw	-0.08644695
-3.6470199	prioritySPACE	-0.08644695
-3.6470199	basedSPACE	-0.08644695
-3.6470199	uponSPACE	-0.08644695
-3.5306058	orderSPACE	-0.08644695
-3.6470199	creation:SPACE	-0.08644695
-3.2268984	firstSPACE	-0.10963808
-3.3948267	createdSPACE	-0.08644692
-3.6470199	->SPACE	-0.08644695
-3.6470199	highestSPACE	-0.08644695
-3.6470199	priority.	-0.08644695
-3.6470199	SeeSPACE	-0.08644695
-3.6470199	howSPACE	-0.08644695
-2.7609053	yourSPACE	-0.09294759
-3.6470199	routesSPACE	-0.08644695
-3.6470199	laySPACE	-0.08644695
-3.6470199	outSPACE	-0.08644695
-3.6470199	routes".	-0.08644695
-3.2268984	YouSPACE	-0.10963808
-3.2268984	canSPACE	-0.08644695
-3.2268984	haveSPACE	-0.10963808
-3.5306058	rootSPACE	-0.08644695
-3.6470199	siteSPACE	-0.08644695
-3.6470199	routedSPACE	-0.08644695
-3.6470199	"root"	-0.08644695
-3.6470199	'welcome#index'	-0.08644695
-3.6470199	ExampleSPACE	-0.08644695
-3.6470199	regularSPACE	-0.08644695
-3.6470199	route:	-0.08644695
-3.5306058	getSPACE	-0.08644692
-3.6470199	'products/:id'SPACE	-0.08644695
-3.5306058	=>SPACE	-0.08644695
-3.6470199	'catalog#view'	-0.08644695
-3.6470199	namedSPACE	-0.08644695
-3.5306058	routeSPACE	-0.08644695
-3.6470199	invokedSPACE	-0.08644695
-3.6470199	purchase_url(id:SPACE	-0.08644695
-3.6470199	product.id)	-0.08644695
-3.6470199	'products/:id/purchase'SPACE	-0.08644695
-3.6470199	'catalog#purchase',SPACE	-0.08644695
-3.6470199	as:SPACE	-0.08644695
-3.6470199	:purchase	-0.08644695
-3.3948267	resourceSPACE	-0.08644692
-3.6470199	(mapsSPACE	-0.08644695
-3.0116923	HTTPSPACE	-0.08644692
-3.6470199	verbsSPACE	-0.08644695
-3.6470199	controllerSPACE	-0.08644695
-3.6470199	actionsSPACE	-0.08644695
-3.6470199	automatically):	-0.08644695
-3.3948267	resourcesSPACE	-0.08644695
-3.6470199	:products	-0.08644695
-3.6470199	options:	-0.08644695
-3.6470199	:productsSPACE	-0.08644695
-3.6470199	memberSPACE	-0.08644695
-3.6470199	'short'	-0.08644695
-3.6470199	postSPACE	-0.08644695
-3.6470199	'toggle'	-0.08644695
-3.2268984	#	-0.090227194
-3.5306058	collectionSPACE	-0.08644695
-3.6470199	'sold'	-0.08644695
-3.5306058	sub-resources:	-0.13413781
-3.6470199	:comments,SPACE	-0.08644695
-3.6470199	:sales	-0.08644695
-3.6470199	:seller	-0.08644695
-3.6470199	moreSPACE	-0.08644695
-3.5306058	complexSPACE	-0.08644695
-3.6470199	:comments	-0.08644695
-3.6470199	:salesSPACE	-0.08644695
-3.6470199	'recent',SPACE	-0.08644695
-3.6470199	on:SPACE	-0.08644695
-3.6470199	:collection	-0.08644695
-3.6470199	concerns:	-0.08644695
-3.6470199	concernSPACE	-0.08644695
-3.6470199	:toggleableSPACE	-0.08644695
-3.6470199	:posts,SPACE	-0.08644695
-3.5306058	concerns:SPACE	-0.13413781
-3.6470199	:toggleable	-0.08644695
-3.6470199	:photos,SPACE	-0.08644695
-3.6470199	withinSPACE	-0.08644695
-3.6470199	namespace:	-0.08644695
-3.6470199	namespaceSPACE	-0.08644695
-3.6470199	:adminSPACE	-0.08644695
-3.6470199	DirectsSPACE	-0.08644695
-3.6470199	/admin/products/*SPACE	-0.08644695
-3.6470199	Admin::ProductsController	-0.08644695
-3.6470199	(app/controllers/admin/products_controller.rb)	-0.08644695
-3.6470199	hereSPACE	-0.08644695
-3.5306058	willSPACE	-0.08644695
-3.6470199	config/application.rb.	-0.08644695
-3.6470199	InSPACE	-0.08644695
-3.6470199	developmentSPACE	-0.08644695
-3.5306058	environmentSPACE	-0.08644695
-3.6470199	application'sSPACE	-0.08644695
-3.3948267	codeSPACE	-0.08644692
-3.5306058	reloadedSPACE	-0.08644695
-3.6470199	on	-0.08644695
-3.6470199	everySPACE	-0.08644695
-3.6470199	request.SPACE	-0.08644695
-3.2268984	ThisSPACE	-0.08644695
-3.6470199	slowsSPACE	-0.08644695
-3.6470199	downSPACE	-0.08644695
-2.8684423	responseSPACE	-0.08644695
-3.3948267	butSPACE	-0.08644692
-3.6470199	perfectSPACE	-0.08644695
-3.6470199	development	-0.08644695
-3.6470199	sinceSPACE	-0.08644695
-3.5306058	don'tSPACE	-0.08644695
-3.6470199	restartSPACE	-0.08644695
-3.5306058	webSPACE	-0.08644695
-3.2268984	serverSPACE	-0.124171466
-3.0116923	whenSPACE	-0.08644692
-3.6470199	changes.	-0.08644695
-3.6470199	cache_classes	-0.08644695
-3.3948267	false	-0.10963808
-3.5306058	eagerSPACE	-0.08644695
-3.2268984	loadSPACE	-0.10963808
-3.6470199	boot.	-0.08644695
-3.6470199	eager_load	-0.08644695
-3.6470199	ShowSPACE	-0.08644695
-3.6470199	fullSPACE	-0.08644695
-2.811354	errorSPACE	-0.106999286
-3.6470199	reportsSPACE	-0.08644695
-3.5306058	disableSPACE	-0.08644695
-3.6470199	caching.	-0.08644695
-3.6470199	consider_all_requests_local	-0.08644695
-3.3948267	true	-0.10963808
-3.6470199	action_controller	-0.08644695
-3.6470199	perform_caching	-0.08644695
-3.5306058	Don'tSPACE	-0.08644695
-3.6470199	careSPACE	-0.08644695
-3.0116923	ifSPACE	-0.08644692
-3.6470199	mailerSPACE	-0.08644695
-3.6470199	can'tSPACE	-0.08644695
-3.6470199	send.	-0.08644695
-3.6470199	action_mailer	-0.08644695
-3.6470199	raise_delivery_errors	-0.08644695
-3.6470199	PrintSPACE	-0.08644695
-3.5306058	deprecationSPACE	-0.13413781
-3.6470199	noticesSPACE	-0.08644695
-3.6470199	logger.	-0.08644695
-3.6470199	active_support	-0.08644695
-3.6470199	deprecation	-0.08644695
-3.6470199	:log	-0.08644695
-3.6470199	DebugSPACE	-0.08644695
-3.6470199	modeSPACE	-0.08644695
-3.6470199	disablesSPACE	-0.08644695
-3.6470199	concatenationSPACE	-0.08644695
-3.6470199	preprocessingSPACE	-0.08644695
-3.2268984	assets.	-0.5145897
-2.9341877	optionSPACE	-0.38840738
-3.6470199	causeSPACE	-0.08644695
-3.6470199	significantSPACE	-0.08644695
-3.6470199	delaysSPACE	-0.08644695
-3.6470199	viewSPACE	-0.08644695
-3.5306058	renderingSPACE	-0.08644695
-3.6470199	large	-0.08644695
-3.6470199	numberSPACE	-0.08644695
-3.6470199	assets	-0.08644695
-3.6470199	debug	-0.08644695
-3.6470199	AssetSPACE	-0.08644695
-3.6470199	digestsSPACE	-0.08644695
-3.6470199	allowSPACE	-0.08644695
-3.6470199	setSPACE	-0.08644695
-3.6470199	far-futureSPACE	-0.08644695
-3.6470199	expirationSPACE	-0.08644695
-3.6470199	datesSPACE	-0.08644695
-3.6470199	assets,	-0.08644695
-3.6470199	yetSPACE	-0.08644695
-3.6470199	stillSPACE	-0.08644695
-3.6470199	ableSPACE	-0.08644695
-3.6470199	expireSPACE	-0.08644695
-3.6470199	themSPACE	-0.08644695
-3.6470199	throughSPACE	-0.08644695
-3.6470199	digestSPACE	-0.08644695
-3.6470199	params.	-0.08644695
-3.6470199	digest	-0.08644695
-3.6470199	AddsSPACE	-0.08644695
-3.3948267	additionalSPACE	-0.08644692
-3.6470199	checkingSPACE	-0.08644695
-3.3948267	servingSPACE	-0.08644692
-3.3948267	assetsSPACE	-0.08644692
-3.6470199	atSPACE	-0.08644695
-3.6470199	runtime.	-0.08644695
-3.6470199	ChecksSPACE	-0.08644695
-3.6470199	improperlySPACE	-0.08644695
-3.6470199	declaredSPACE	-0.08644695
-3.6470199	sprocketsSPACE	-0.08644695
-3.6470199	dependencies.	-0.08644695
-3.6470199	RaisesSPACE	-0.08644695
-3.6470199	helpfulSPACE	-0.08644695
-3.6470199	messages.	-0.08644695
-3.6470199	raise_runtime_errors	-0.08644695
-3.3948267	missingSPACE	-0.08644695
-3.6470199	translations	-0.08644695
-3.6470199	config.action_view.raise_on_missing_translationsSPACE	-0.08644695
-3.6470199	CodeSPACE	-0.08644695
-3.5306058	betweenSPACE	-0.08644695
-3.6470199	requests.	-0.08644695
-3.6470199	EagerSPACE	-0.08644695
-3.6470199	boot.SPACE	-0.08644695
-3.6470199	loadsSPACE	-0.08644695
-3.6470199	mostSPACE	-0.08644695
-3.6470199	and	-0.08644695
-3.6470199	applicationSPACE	-0.08644695
-3.6470199	memory,SPACE	-0.08644695
-3.6470199	allowingSPACE	-0.08644695
-3.6470199	bothSPACE	-0.08644695
-3.6470199	threadedSPACE	-0.08644695
-3.6470199	servers	-0.08644695
-3.6470199	relyingSPACE	-0.08644695
-3.6470199	copySPACE	-0.08644695
-3.5306058	writeSPACE	-0.08644695
-3.6470199	performSPACE	-0.08644695
-3.6470199	better.	-0.08644695
-3.6470199	RakeSPACE	-0.08644695
-3.6470199	ignoreSPACE	-0.08644695
-3.6470199	performance.	-0.08644695
-3.6470199	FullSPACE	-0.08644695
-3.6470199	disabledSPACE	-0.08644695
-3.5306058	cachingSPACE	-0.08644695
-3.6470199	turnedSPACE	-0.08644695
-3.6470199	on.	-0.08644695
-3.6470199	EnableSPACE	-0.08644695
-3.6470199	Rack::CacheSPACE	-0.08644695
-3.6470199	putSPACE	-0.08644695
-3.6470199	simpleSPACE	-0.08644695
-3.1060994	cacheSPACE	-0.08644695
-3.6470199	frontSPACE	-0.08644695
-3.6470199	AddSPACE	-0.08644692
-3.6470199	`rack-cache`SPACE	-0.08644695
-3.6470199	GemfileSPACE	-0.08644695
-3.6470199	beforeSPACE	-0.08644695
-3.6470199	enablingSPACE	-0.08644695
-3.5306058	this.	-0.13413781
-3.6470199	large-scaleSPACE	-0.08644695
-3.6470199	productionSPACE	-0.08644695
-3.6470199	use,SPACE	-0.08644695
-3.6470199	considerSPACE	-0.08644695
-3.2268984	usingSPACE	-0.10963808
-3.6470199	reverseSPACE	-0.08644695
-3.6470199	proxySPACE	-0.08644695
-3.6470199	like	-0.08644695
-3.6470199	NGINX,SPACE	-0.08644695
-3.6470199	varnishSPACE	-0.08644695
-3.6470199	squid.	-0.08644695
-3.6470199	config.action_dispatch.rack_cacheSPACE	-0.08644695
-3.6470199	DisableSPACE	-0.08644695
-3.5306058	staticSPACE	-0.08644695
-3.6470199	`/public`SPACE	-0.08644695
-3.5306058	folderSPACE	-0.08644695
-3.6470199	since	-0.08644695
-3.6470199	ApacheSPACE	-0.08644695
-3.6470199	NGINXSPACE	-0.08644695
-3.2268984	alreadySPACE	-0.08644695
-3.6470199	handlesSPACE	-0.08644695
-3.6470199	serve_static_files	-0.08644695
-3.6470199	'RAILS_SERVE_STATIC_FILES'	-0.08644695
-3.6470199	present?	-0.08644695
-3.6470199	CompressSPACE	-0.08644695
-3.5306058	JavaScriptsSPACE	-0.08644695
-3.6470199	CSS.	-0.08644695
-3.6470199	js_compressor	-0.08644695
-3.6470199	:uglifier	-0.08644695
-3.6470199	config.assets.css_compressorSPACE	-0.08644695
-3.6470199	:sass	-0.08644695
-3.6470199	fallbackSPACE	-0.08644695
-3.6470199	pipelineSPACE	-0.08644695
-3.6470199	precompiledSPACE	-0.08644695
-3.3948267	assetSPACE	-0.08644692
-3.6470199	missed.	-0.08644695
-3.6470199	compile	-0.08644695
-3.6470199	`config.assets.precompile`SPACE	-0.08644695
-3.6470199	`config.assets.version`SPACE	-0.08644695
-3.6470199	movedSPACE	-0.08644695
-3.6470199	config/initializers/assets.rb	-0.08644695
-3.6470199	SpecifiesSPACE	-0.08644695
-3.3948267	headerSPACE	-0.08644695
-3.5306058	usesSPACE	-0.08644695
-3.6470199	sendingSPACE	-0.08644695
-3.6470199	files.	-0.08644695
-3.6470199	config.action_dispatch.x_sendfile_headerSPACE	-0.08644695
-3.6470199	'X-Sendfile'SPACE	-0.08644695
-3.6470199	Apache	-0.08644695
-3.6470199	'X-Accel-Redirect'SPACE	-0.08644695
-3.6470199	NGINX	-0.08644695
-3.6470199	ForceSPACE	-0.08644695
-3.6470199	accessSPACE	-0.08644695
-3.6470199	appSPACE	-0.08644695
-3.6470199	SSL,SPACE	-0.08644695
-3.6470199	Strict-Transport-Security,SPACE	-0.08644695
-3.6470199	secureSPACE	-0.08644695
-3.6470199	cookies.	-0.08644695
-3.6470199	config.force_sslSPACE	-0.08644695
-3.6470199	UseSPACE	-0.08644692
-3.6470199	lowestSPACE	-0.08644695
-3.3948267	logSPACE	-0.08644692
-3.6470199	levelSPACE	-0.08644695
-3.6470199	ensureSPACE	-0.08644695
-3.6470199	availabilitySPACE	-0.08644695
-3.6470199	diagnosticSPACE	-0.08644695
-3.6470199	information	-0.08644695
-3.6470199	problemsSPACE	-0.08644695
-3.6470199	arise.	-0.08644695
-3.6470199	log_level	-0.08644695
-3.6470199	:debug	-0.08644695
-3.6470199	PrependSPACE	-0.08644695
-3.6470199	linesSPACE	-0.08644695
-3.6470199	followingSPACE	-0.08644695
-3.6470199	tags.	-0.08644695
-3.6470199	config.log_tagsSPACE	-0.08644695
-3.6470199	[SPACE	-0.08644695
-3.6470199	:subdomain,SPACE	-0.08644695
-3.6470199	:uuidSPACE	-0.08644695
-3.6470199	differentSPACE	-0.08644695
-3.6470199	loggerSPACE	-0.08644695
-3.6470199	distributedSPACE	-0.08644695
-3.6470199	setups.	-0.08644695
-3.6470199	config.loggerSPACE	-0.08644695
-3.6470199	ActiveSupport::TaggedLogging.new(SyslogLogger.new)	-0.08644695
-3.5306058	storeSPACE	-0.08644695
-3.6470199	production.	-0.08644695
-3.6470199	config.cache_storeSPACE	-0.08644695
-3.6470199	:mem_cache_store	-0.08644695
-3.6470199	images,SPACE	-0.08644695
-3.6470199	stylesheets,SPACE	-0.08644695
-3.6470199	server.	-0.08644695
-3.6470199	config.action_controller.asset_hostSPACE	-0.08644695
-3.6470199	'http://assets.example.com'	-0.08644695
-3.6470199	IgnoreSPACE	-0.08644695
-3.6470199	badSPACE	-0.08644695
-3.3948267	emailSPACE	-0.08644692
-3.6470199	addressesSPACE	-0.08644695
-3.5306058	doSPACE	-0.08644695
-3.3948267	raiseSPACE	-0.08644692
-3.2268984	deliverySPACE	-0.10963808
-3.6470199	errors.	-0.08644695
-3.6470199	trueSPACE	-0.08644695
-3.6470199	configureSPACE	-0.08644695
-3.6470199	immediateSPACE	-0.08644695
-3.6470199	config.action_mailer.raise_delivery_errorsSPACE	-0.08644695
-3.6470199	fallbacksSPACE	-0.08644695
-3.6470199	I18nSPACE	-0.08644695
-3.6470199	(makesSPACE	-0.08644695
-3.6470199	lookupsSPACE	-0.08644695
-3.6470199	fallSPACE	-0.08644695
-3.6470199	backSPACE	-0.08644695
-3.6470199	I18n.default_localeSPACE	-0.08644695
-3.6470199	translationSPACE	-0.08644695
-3.6470199	cannotSPACE	-0.08644695
-3.6470199	found).	-0.08644695
-3.6470199	i18n	-0.08644695
-3.6470199	fallbacks	-0.08644695
-3.6470199	SendSPACE	-0.08644695
-3.6470199	registeredSPACE	-0.08644695
-3.6470199	listeners.	-0.08644695
-3.6470199	:notify	-0.08644695
-3.6470199	loggingSPACE	-0.08644695
-3.6470199	formatterSPACE	-0.08644695
-3.6470199	soSPACE	-0.08644695
-3.6470199	PIDSPACE	-0.08644695
-3.6470199	suppressed.	-0.08644695
-3.6470199	log_formatter	-0.08644695
-3.5306058	Logger	-0.11765208
-3.6470199	Formatter	-0.08644695
-2.9341877	testSPACE	-0.08644695
-3.5306058	usedSPACE	-0.08644695
-3.6470199	exclusivelySPACE	-0.08644695
-3.6470199	application's	-0.08644695
-3.6470199	suite.SPACE	-0.08644695
-3.6470199	neverSPACE	-0.08644695
-3.5306058	needSPACE	-0.13413781
-3.6470199	workSPACE	-0.08644695
-3.3948267	itSPACE	-0.11765208
-3.6470199	otherwise.SPACE	-0.08644695
-3.6470199	RememberSPACE	-0.08644695
-3.5306058	that	-0.13413781
-3.5306058	databaseSPACE	-0.08644695
-3.6470199	"scratchSPACE	-0.08644695
-3.6470199	space"SPACE	-0.08644695
-3.6470199	suiteSPACE	-0.08644695
-3.6470199	wiped	-0.08644695
-3.6470199	recreatedSPACE	-0.08644695
-3.6470199	runs.SPACE	-0.08644695
-3.6470199	relySPACE	-0.08644695
-3.2268984	dataSPACE	-0.08644695
-3.6470199	there!	-0.08644695
-3.6470199	avoidsSPACE	-0.08644695
-3.6470199	loadingSPACE	-0.08644695
-3.6470199	wholeSPACE	-0.08644695
-3.6470199	justSPACE	-0.08644695
-3.6470199	purposeSPACE	-0.08644695
-3.5306058	runningSPACE	-0.08644695
-3.5306058	singleSPACE	-0.08644695
-3.6470199	test.SPACE	-0.08644695
-3.6470199	IfSPACE	-0.08644695
-3.6470199	toolSPACE	-0.08644695
-3.6470199	preloadsSPACE	-0.08644695
-3.6470199	tests,SPACE	-0.08644695
-3.6470199	true.	-0.08644695
-3.6470199	ConfigureSPACE	-0.08644695
-3.5306058	fileSPACE	-0.08644692
-3.6470199	testsSPACE	-0.08644695
-3.6470199	Cache-ControlSPACE	-0.08644695
-3.6470199	static_cache_control	-0.08644695
-3.6470199	'public,SPACE	-0.08644695
-3.6470199	max-age=3600'	-0.08644695
-3.6470199	RaiseSPACE	-0.08644695
-3.6470199	exceptionsSPACE	-0.08644695
-3.6470199	insteadSPACE	-0.08644695
-3.6470199	exceptionSPACE	-0.08644695
-3.6470199	templates.	-0.08644695
-3.6470199	action_dispatch	-0.08644695
-3.6470199	show_exceptions	-0.08644695
-3.3948267	requestSPACE	-0.08644692
-3.6470199	forgerySPACE	-0.08644695
-3.6470199	protectionSPACE	-0.08644695
-3.6470199	environment.	-0.08644695
-3.6470199	allow_forgery_protection	-0.08644695
-3.6470199	TellSPACE	-0.08644695
-3.6470199	ActionSPACE	-0.08644695
-3.6470199	MailerSPACE	-0.08644695
-3.6470199	deliverSPACE	-0.08644695
-3.5306058	emailsSPACE	-0.08644695
-3.6470199	realSPACE	-0.08644695
-3.6470199	world.	-0.08644695
-3.6470199	:testSPACE	-0.08644695
-3.0116923	methodSPACE	-0.08644695
-3.6470199	accumulatesSPACE	-0.08644695
-3.6470199	sentSPACE	-0.08644695
-3.6470199	the	-0.08644695
-3.6470199	ActionMailer::Base.deliveriesSPACE	-0.08644695
-3.5306058	array.	-0.13413781
-3.6470199	delivery_method	-0.08644695
-3.6470199	:test	-0.08644695
-3.6470199	RandomizeSPACE	-0.08644695
-3.6470199	casesSPACE	-0.08644695
-3.6470199	executed.	-0.08644695
-3.6470199	test_order	-0.08644695
-3.6470199	:random	-0.08644695
-3.6470199	stderr.	-0.08644695
-3.6470199	:stderr	-0.08644695
-3.6470199	BeSPACE	-0.08644695
-3.6470199	sureSPACE	-0.08644695
-3.6470199	modifySPACE	-0.08644695
-3.5306058	file.	-0.13413781
-3.6470199	VersionSPACE	-0.08644695
-3.6470199	assets,SPACE	-0.08644695
-3.6470199	changeSPACE	-0.08644695
-3.6470199	version	-0.08644695
-3.6470199	'1.0'	-0.08644695
-3.1060994	path	-0.106999286
-3.6470199	Rails.application.config.assets.pathsSPACE	-0.08644695
-3.6470199	<<SPACE	-0.08644695
-3.6470199	Emoji.images_path	-0.08644695
-3.6470199	PrecompileSPACE	-0.08644695
-3.6470199	application.js,SPACE	-0.08644695
-3.6470199	application.css,SPACE	-0.08644695
-3.6470199	non-JS/CSSSPACE	-0.08644695
-3.6470199	app/assetsSPACE	-0.08644695
-3.6470199	added.	-0.08644695
-3.6470199	Rails.application.config.assets.precompileSPACE	-0.08644695
-3.5306058	%w(SPACE	-0.08644695
-3.6470199	search.jsSPACE	-0.08644695
-3.6470199	addSPACE	-0.08644695
-3.6470199	backtraceSPACE	-0.08644695
-3.5306058	silencersSPACE	-0.08644695
-3.6470199	librariesSPACE	-0.08644695
-3.5306058	you'reSPACE	-0.08644695
-3.6470199	wishSPACE	-0.08644695
-3.6470199	seeSPACE	-0.08644695
-3.6470199	backtraces.	-0.08644695
-3.6470199	Rails.backtrace_cleaner.add_silencerSPACE	-0.08644695
-3.6470199	|line|SPACE	-0.08644695
-3.6470199	lineSPACE	-0.08644695
-3.6470199	=~SPACE	-0.08644695
-3.6470199	/my_noisy_library/SPACE	-0.08644695
-3.6470199	alsoSPACE	-0.08644695
-3.6470199	removeSPACE	-0.08644695
-3.6470199	tryingSPACE	-0.08644695
-3.6470199	debugSPACE	-0.08644695
-3.6470199	problemSPACE	-0.08644695
-3.6470199	mightSPACE	-0.08644695
-3.6470199	stemSPACE	-0.08644695
-3.6470199	frameworkSPACE	-0.08644695
-3.6470199	code.	-0.08644695
-3.6470199	Rails.backtrace_cleaner.remove_silencers!	-0.08644695
-3.6470199	active_job	-0.08644695
-3.6470199	queue_adapter	-0.08644695
-3.6470199	:barbeque	-0.08644695
-3.6470199	cookies_serializer	-0.08644695
-3.1060994	sensitiveSPACE	-0.08644695
-3.6470199	parametersSPACE	-0.08644695
-3.6470199	filteredSPACE	-0.08644695
-3.6470199	filter_parameters	-0.08644695
-3.6470199	+=	-0.08644695
-3.6470199	:password	-0.08644695
-3.6470199	newSPACE	-0.08644695
-3.5306058	inflectionSPACE	-0.13413781
-3.5306058	rulesSPACE	-0.08644692
-3.6470199	format.SPACE	-0.08644695
-3.6470199	Inflections	-0.08644695
-3.6470199	specific,SPACE	-0.08644695
-3.6470199	defineSPACE	-0.08644695
-3.6470199	manySPACE	-0.08644695
-3.6470199	different	-0.08644695
-3.6470199	localesSPACE	-0.08644695
-3.6470199	wish.SPACE	-0.08644695
-3.6470199	AllSPACE	-0.08644695
-3.6470199	theseSPACE	-0.08644695
-3.6470199	examplesSPACE	-0.08644695
-3.6470199	activeSPACE	-0.08644695
-3.6470199	default:	-0.08644695
-3.6470199	ActiveSupport::Inflector.inflections(:en)SPACE	-0.08644695
-3.6470199	|inflect|	-0.08644695
-3.6470199	inflect.pluralSPACE	-0.08644695
-3.6470199	/^(ox)$/i,SPACE	-0.08644695
-3.6470199	'\1en'	-0.08644695
-3.6470199	inflect.singularSPACE	-0.08644695
-3.6470199	/^(ox)en/i,SPACE	-0.08644695
-3.6470199	'\1'	-0.08644695
-3.6470199	inflect.irregularSPACE	-0.08644695
-3.6470199	'person',SPACE	-0.08644695
-3.6470199	'people'	-0.08644695
-3.6470199	inflect.uncountableSPACE	-0.08644695
-3.6470199	fishSPACE	-0.08644695
-3.6470199	sheepSPACE	-0.08644695
-3.6470199	TheseSPACE	-0.08644695
-3.6470199	supportedSPACE	-0.08644695
-3.5306058	enabledSPACE	-0.13413781
-3.6470199	inflect.acronymSPACE	-0.08644695
-3.6470199	'RESTful'	-0.08644695
-3.6470199	mimeSPACE	-0.08644695
-3.6470199	typesSPACE	-0.08644695
-3.6470199	respond_toSPACE	-0.08644695
-3.6470199	blocks:	-0.08644695
-3.6470199	Mime::Type.registerSPACE	-0.08644695
-3.6470199	"text/richtext",SPACE	-0.08644695
-3.6470199	:rtf	-0.08644695
-3.6470199	session_store	-0.08644695
-3.6470199	:cookie_store	-0.08644695
-3.0116923	key	-0.15045856
-3.6470199	'_dummy_session'	-0.08644695
-3.6470199	containsSPACE	-0.08644695
-3.6470199	settingsSPACE	-0.08644695
-3.6470199	ActionController::ParamsWrapperSPACE	-0.08644695
-3.6470199	which	-0.08644695
-3.6470199	default.	-0.08644695
-3.6470199	parameterSPACE	-0.08644695
-3.6470199	wrappingSPACE	-0.08644695
-3.6470199	JSON.SPACE	-0.08644695
-3.6470199	:formatSPACE	-0.08644695
-3.6470199	emptySPACE	-0.08644695
-3.6470199	:action_controller	-0.08644695
-3.6470199	wrap_parameters	-0.08644695
-3.6470199	format	-0.08644695
-3.3948267	respond_to?	-0.11765208
-3.6470199	:wrap_parameters	-0.08644695
-3.6470199	containSPACE	-0.08644695
-3.6470199	recordSPACE	-0.08644695
-3.6470199	creationSPACE	-0.08644695
-3.6470199	neededSPACE	-0.08644695
-3.6470199	seedSPACE	-0.08644695
-3.5306058	itsSPACE	-0.08644695
-3.6470199	values.	-0.08644695
-3.6470199	thenSPACE	-0.08644695
-3.6470199	loadedSPACE	-0.08644695
-3.6470199	rakeSPACE	-0.08644695
-3.6470199	db:seedSPACE	-0.08644695
-3.6470199	(orSPACE	-0.08644695
-3.6470199	alongsideSPACE	-0.08644695
-3.6470199	dbSPACE	-0.08644695
-3.6470199	db:setup).	-0.08644695
-3.6470199	Examples:	-0.08644695
-3.6470199	citiesSPACE	-0.08644695
-3.6470199	City.create([{SPACE	-0.08644695
-3.5306058	name:SPACE	-0.08644695
-3.6470199	'Chicago'SPACE	-0.08644695
-3.6470199	},SPACE	-0.08644695
-3.6470199	'Copenhagen'SPACE	-0.08644695
-3.6470199	}])	-0.08644695
-3.6470199	Mayor.create(name:SPACE	-0.08644695
-3.6470199	'Emanuel',SPACE	-0.08644695
-3.6470199	city:SPACE	-0.08644695
-3.6470199	cities.first)	-0.08644695
-3.6470199	'https://dummy.com'	-0.08644695
-3.6470199	:config	-0.08644695
-3.6470199	tap	-0.08644695
-3.6470199	Hashie	-0.08644695
-3.6470199	Mash	-0.08644695
-3.6470199	'helloSPACE	-0.08644695
-3.6470199	world'	-0.08644695
-3.6470199	:create_execution	-0.08644695
-3.6470199	'.perform_later'	-0.08644695
-3.6470199	'test_queue'	-0.08644695
-3.6470199	perform_later	-0.08644695
-3.6470199	'setsSPACE	-0.08644695
-3.6470199	'withSPACE	-0.08644695
-3.6470199	'isSPACE	-0.08644695
-3.6470199	wait	-0.08644695
-3.6470199	week	-0.08644695
-3.6470199	'.perform_now'	-0.08644695
-3.6470199	:retry_count	-0.08644695
-3.6470199	:exponential_retry	-0.08644695
-3.5306058	retry_count	-0.08644695
-3.3948267	error	-0.10176929
-3.6470199	exponential_retry	-0.08644695
-3.6470199	retryableSPACE	-0.08644695
-3.6470199	raised'	-0.08644695
-3.6470199	:error	-0.08644695
-3.6470199	:retry	-0.08644695
-3.6470199	perform_now	-0.08644695
-3.6470199	retriedSPACE	-0.08644695
-3.6470199	limitSPACE	-0.08644695
-3.6470199	times'	-0.08644695
-3.6470199	not-retryableSPACE	-0.08644695
-3.6470199	blouson/version	-0.08644695
-3.6470199	'blouson/sensitive_params_silener'	-0.08644695
-3.6470199	'blouson/sensitive_query_filter'	-0.08644695
-3.6470199	'blouson/engine'	-0.08644695
-3.6470199	'blouson/tolerant_regexp'	-0.08644695
-3.3948267	Blouson	-0.29187003
-3.5306058	SENSITIVE_PARAMS_REGEXP	-0.13413781
-3.6470199	TolerantRegexp	-0.08644695
-3.6470199	'\Asecure_'	-0.08644695
-3.6470199	freeze	-0.08644695
-3.5306058	SENSITIVE_TABLE_REGEXP	-0.13413781
-2.602942	/	-0.20179255
-3.6470199	secure_	-0.08644695
-3.5306058	FILTERED	-0.08644695
-3.5306058	'[FILTERED]'	-0.08644695
-3.6470199	RavenParameterFilterProcessor	-0.08644695
-3.6470199	create	-0.08644695
-3.3948267	filters	-0.10963808
-3.5306058	header_filters	-0.10963808
-3.6470199	Class	-0.08644695
-3.6470199	Raven	-0.08644695
-3.6470199	Processor	-0.08644695
-3.6470199	@filters	-0.08644695
-3.6470199	@header_filters	-0.08644695
-3.5306058	@parameter_filter	-0.11765208
-3.6470199	ActionDispatch	-0.08644695
-3.6470199	Http	-0.08644695
-3.6470199	ParameterFilter	-0.08644695
-3.6470199	process	-0.08644695
-3.6470199	process_query_string	-0.08644695
-3.6470199	process_request_body	-0.08644695
-3.6470199	process_request_header	-0.08644695
-3.6470199	process_cookie	-0.08644695
-3.6470199	return	-0.08644695
-3.6470199	:request	-0.08644695
-3.6470199	&&	-0.08644695
-3.5306058	:data	-0.08644695
-3.0116923	data	-0.17828885
-3.6470199	is_a?	-0.08644695
-3.5306058	String	-0.08644695
-3.6470199	MaybeSPACE	-0.08644695
-3.6470199	JSONSPACE	-0.08644695
-3.6470199	filter	-0.08644695
-3.6470199	ParserError	-0.08644695
-3.6470199	parserSPACE	-0.08644695
-3.6470199	extraSPACE	-0.08644695
-3.6470199	field	-0.08644695
-3.6470199	:extra	-0.08644695
-3.6470199	'BlousonError'	-0.08644695
-3.6470199	:query_string	-0.08644695
-3.5306058	query	-0.08644695
-3.6470199	Rack	-0.08644695
-3.6470199	Utils	-0.08644695
-3.6470199	parse_query	-0.08644695
-3.5306058	filtered	-0.08644692
-3.6470199	build_query	-0.08644695
-3.3948267	:headers	-0.10176929
-3.0116923	headers	-0.16176285
-3.6470199	each_key	-0.08644695
-3.3948267	k	-0.08644692
-3.6470199	include?	-0.08644695
-3.6470199	downcase	-0.08644695
-3.6470199	'FILTERED'	-0.08644695
-3.6470199	'Cookie'	-0.08644695
-3.5306058	cookies	-0.08644695
-3.3948267	Hash	-0.08644695
-3.6470199	split	-0.08644695
-3.6470199	';SPACE	-0.08644695
-3.1060994	'	-0.24227932
-3.5306058	pair	-0.11765208
-3.6470199	'='	-0.08644695
-3.6470199	2	-0.08644695
-3.6470199	join	-0.08644695
-3.6470199	SensitiveParamsSilencer	-0.08644695
-3.6470199	controller	-0.08644695
-3.6470199	include_sensitive_data?	-0.08644695
-3.6470199	old_level	-0.08644695
-3.5306058	ActiveRecord	-0.13413781
-3.6470199	logger	-0.08644695
-3.5306058	level	-0.11765208
-3.6470199	INFO	-0.08644695
-3.6470199	info	-0.08644695
-3.6470199	[Blouson::SensitiveParamsSilencer]SPACE	-0.08644695
-3.2268984	SQLSPACE	-0.13413781
-3.6470199	LogSPACE	-0.08644695
-3.6470199	skippedSPACE	-0.08644695
-3.6470199	nested_params_keys	-0.08644695
-3.6470199	any?	-0.08644695
-3.6470199	===	-0.08644695
-3.6470199	:include_sensitive_data?	-0.08644695
-3.6470199	:to_unsafe_h	-0.08644695
-3.6470199	to_unsafe_h	-0.08644695
-3.6470199	user_params	-0.08644695
-3.6470199	reject	-0.08644695
-3.6470199	'controller'	-0.08644695
-3.6470199	'action'	-0.08644695
-3.6470199	inject	-0.08644695
-3.3948267	keys	-0.11765208
-3.5306058	first	-0.08644695
-3.5306058	last	-0.08644695
-3.6470199	kind_of?	-0.08644695
-3.6470199	:nested_params_keys	-0.08644695
-3.5306058	SensitiveQueryFilter	-0.08644695
-3.5306058	QUOTED_WORD_REGEXP	-0.08644695
-3.6470199	(?:SPACE	-0.08644695
-3.6470199	'.+?(?<!	-0.08644695
-3.5306058	\\	-0.08644695
-3.6470199	)'NEWLINE	-0.08644695
-3.6470199	|SPACE	-0.08644695
-3.6470199	".+?(?<!	-0.08644695
-3.6470199	)"NEWLINE	-0.08644695
-3.6470199	)NEWLINE	-0.08644695
-3.6470199	/x	-0.08644695
-3.6470199	contain_sensitive_query?	-0.08644695
-3.6470199	filter_sensitive_words	-0.08644695
-3.6470199	gsub	-0.08644695
-3.5306058	StatementInvalidErrorFilter	-0.13413781
-3.6470199	original_exception	-0.08644692
-3.6470199	defined?	-0.08644695
-3.6470199	Mysql2	-0.08644695
-3.5306058	Mysql2Filter	-0.08644695
-3.6470199	$!	-0.08644695
-3.5306058	super	-0.08644692
-3.6470199	SensitiveTableQueryLogSilencer	-0.08644695
-3.6470199	Arproxy	-0.08644695
-3.5306058	sql	-0.08644695
-3.6470199	!=	-0.08644695
-3.6470199	DEBUG	-0.08644695
-3.3948267	!	-0.09294759
-3.6470199	[Blouson::SensitiveTableQueryLogSilencer]SPACE	-0.08644695
-3.6470199	table	-0.08644695
-3.6470199	Regexp	-0.08644695
-3.6470199	=~	-0.08644695
-3.3948267	str	-0.11765208
-3.6470199	:valid_encoding?	-0.08644695
-3.6470199	valid_encoding?	-0.08644695
-3.6470199	1.0.0	-0.08644695
-3.6470199	bundler/setup	-0.08644695
-3.6470199	'pry'	-0.08644695
-3.6470199	'mysql2'	-0.08644695
-3.6470199	'active_record'	-0.08644695
-3.6470199	blouson	-0.08644695
-3.5306058	database_config	-0.08644695
-3.6470199	'adapter'	-0.08644695
-3.6470199	'database'	-0.08644695
-3.6470199	'blouson_test'	-0.08644695
-3.6470199	SecureUser	-0.08644695
-3.6470199	User	-0.08644695
-3.6470199	flagsSPACE	-0.08644695
-3.6470199	--only-failuresSPACE	-0.08644695
-3.6470199	--next-failure	-0.08644695
-3.6470199	example_status_persistence_file_path	-0.08644695
-3.6470199	.rspec_status	-0.08644695
-3.6470199	expect_with	-0.08644695
-3.6470199	:rspec	-0.08644695
-3.6470199	syntax	-0.08644695
-3.6470199	:expect	-0.08644695
-3.6470199	include_chain_clauses_in_custom_matcher_descriptions	-0.08644695
-3.6470199	mock_with	-0.08644695
-3.5306058	mocks	-0.08644695
-3.6470199	verify_partial_doubles	-0.08644695
-3.6470199	filter_run	-0.08644695
-3.6470199	:focus	-0.08644695
-3.6470199	run_all_when_everything_filtered	-0.08644695
-3.6470199	disable_monkey_patching!	-0.08644695
-3.6470199	warnings	-0.08644695
-3.6470199	files_to_run	-0.08644695
-3.6470199	one?	-0.08644695
-3.6470199	default_formatter	-0.08644695
-3.6470199	'doc'	-0.08644695
-3.6470199	order	-0.08644695
-3.6470199	Kernel	-0.08644695
-3.6470199	srand	-0.08644695
-3.6470199	seed	-0.08644695
-3.6470199	:suite	-0.08644695
-3.6470199	Tasks	-0.08644695
-3.6470199	DatabaseTasks	-0.08644695
-3.6470199	establish_connection	-0.08644695
-3.5306058	connection	-0.08644695
-3.6470199	<<-	-0.08644695
-3.6470199	SQL	-0.08644695
-3.6470199	strip_heredoc	-0.08644695
-3.6470199	CREATESPACE	-0.08644695
-3.6470199	TABLESPACE	-0.08644695
-3.5306058	`secure_users`SPACE	-0.08644695
-3.5306058	(NEWLINE	-0.13413781
-3.6470199	`id`SPACE	-0.08644695
-3.6470199	int(11)SPACE	-0.08644695
-3.6470199	unsignedSPACE	-0.08644695
-3.5306058	NOTSPACE	-0.08644695
-3.6470199	NULLSPACE	-0.08644695
-3.6470199	AUTO_INCREMENT,NEWLINE	-0.08644695
-3.6470199	`email`SPACE	-0.08644695
-3.3948267	varchar(255)SPACE	-0.389651
-3.6470199	NULL,NEWLINE	-0.08644695
-3.6470199	`email2`SPACE	-0.08644695
-3.6470199	PRIMARYSPACE	-0.08644695
-3.5306058	KEYSPACE	-0.08644692
-3.6470199	(`id`),NEWLINE	-0.08644695
-3.6470199	UNIQUESPACE	-0.08644695
-3.6470199	`idx_email2`SPACE	-0.08644695
-3.6470199	(`email2`)NEWLINE	-0.08644695
-3.6470199	)SPACE	-0.08644695
-3.6470199	ENGINE=InnoDBSPACE	-0.08644695
-3.6470199	DEFAULTSPACE	-0.08644695
-3.6470199	CHARSET=utf8;NEWLINE	-0.08644695
-3.6470199	SQLNEWLINE	-0.08644695
-3.5306058	`users`SPACE	-0.08644695
-3.6470199	`name`SPACE	-0.08644695
-3.6470199	`idx_name`SPACE	-0.08644695
-3.6470199	(`name`)NEWLINE	-0.08644695
-3.5306058	after	-0.08644695
-3.6470199	drop	-0.08644695
-3.6470199	'spec_helper'	-0.08644695
-3.6470199	'StatementInvalidErrorFilter'	-0.08644695
-3.6470199	model_class	-0.08644695
-3.6470199	where	-0.08644695
-3.6470199	condition	-0.08644695
-3.6470199	dummy_error	-0.08644695
-3.6470199	StatementInvalid	-0.08644695
-3.6470199	prepend	-0.08644695
-3.6470199	stub_const	-0.08644695
-3.6470199	'ActiveRecord::StatementInvalid'	-0.08644695
-3.6470199	querySPACE	-0.08644695
-3.5306058	table'	-0.13413781
-3.6470199	:model_class	-0.08644695
-3.6470199	:email	-0.08644695
-3.6470199	'alice@example.com'	-0.08644695
-3.6470199	:condition	-0.08644695
-3.6470199	invalid_column	-0.08644695
-3.3948267	email	-0.10176929
-3.6470199	'filtersSPACE	-0.08644695
-3.6470199	statement'	-0.08644695
-3.6470199	SELECT.*	-0.08644695
-2.9341877	\	-0.08644695
-3.6470199	[FILTERED	-0.08644695
-3.6470199	to_sSPACE	-0.08644695
-3.6470199	'SELECT'	-0.08644695
-3.6470199	not_to	-0.08644695
-3.5306058	inspectSPACE	-0.13413781
-3.6470199	inspect	-0.08644695
-3.6470199	doubleSPACE	-0.08644695
-3.5306058	quotedSPACE	-0.08644695
-3.6470199	queries'	-0.08644695
-3.6470199	%!	-0.08644695
-3.6470199	SELECTSPACE	-0.08644695
-3.6470199	*SPACE	-0.08644695
-3.6470199	FROMSPACE	-0.08644695
-3.6470199	secure_usersSPACE	-0.08644695
-3.6470199	WHERESPACE	-0.08644695
-3.6470199	invalid_columnSPACE	-0.08644695
-3.6470199	quoteSPACE	-0.08644695
-3.6470199	escapedSPACE	-0.08644695
-3.6470199	query'	-0.08644695
-3.6470199	'alice'@example'.com''	-0.08644695
-3.6470199	data'	-0.08644695
-3.5306058	'alice'	-0.08644695
-3.6470199	`secure_users`.`invalid_column`SPACE	-0.08644695
-3.6470199	'[FILTERED]'SPACE	-0.08644695
-3.6470199	multipleSPACE	-0.08644695
-3.6470199	values'	-0.08644695
-3.6470199	email2	-0.08644695
-3.6470199	`secure_users`.`email2`SPACE	-0.08644695
-3.5306058	valueSPACE	-0.13413781
-3.6470199	Mysql2::Error'	-0.08644695
-3.6470199	RecordNotUnique	-0.08644695
-3.6470199	'ActiveRecord::RecordNotUnique'	-0.08644695
-3.6470199	create!	-0.08644695
-3.6470199	delete_all	-0.08644695
-3.6470199	be_a	-0.08644695
-3.6470199	'INSERTSPACE	-0.08644695
-3.6470199	INTOSPACE	-0.08644695
-3.6470199	to_not	-0.08644695
-3.6470199	Exception#cause'	-0.08644695
-3.5306058	mysql2_error	-0.08644692
-3.6470199	cause	-0.08644695
-3.6470199	insensitiveSPACE	-0.08644695
-3.3948267	:name	-0.10489973
-3.6470199	'doesSPACE	-0.08644695
-3.6470199	filterSPACE	-0.08644695
-3.6470199	to_s'	-0.08644695
-3.6470199	non-sensitiveSPACE	-0.08644695
-3.6470199	'active_support/all'	-0.08644695
-3.6470199	'faraday'	-0.08644695
-3.6470199	'faraday_middleware'	-0.08644695
-3.6470199	'garage_client/version'	-0.08644695
-3.6470199	'garage_client/cachers/base'	-0.08644695
-3.6470199	'garage_client/configuration'	-0.08644695
-3.6470199	'garage_client/error'	-0.08644695
-3.6470199	'garage_client/request'	-0.08644695
-3.6470199	'garage_client/request/json_encoded'	-0.08644695
-3.6470199	'garage_client/request/propagate_request_id'	-0.08644695
-3.6470199	'garage_client/response'	-0.08644695
-3.6470199	'garage_client/response/cacheable'	-0.08644695
-3.6470199	'garage_client/response/raise_http_exception'	-0.08644695
-3.6470199	'garage_client/resource'	-0.08644695
-3.6470199	'garage_client/client'	-0.08644695
-3.6470199	'garage_client/railtie'	-0.08644695
-3.6470199	each	-0.08644695
-3.6470199	delegate	-0.08644695
-3.5306058	:configuration	-0.08644695
-3.6470199	'default_headers'	-0.08644695
-3.6470199	'default_headers='	-0.08644695
-2.9341877	configuration	-0.23662728
-3.6470199	@configuration	-0.08644695
-3.5306058	&	-0.11765208
-3.6470199	block	-0.08644695
-3.6470199	instance_eval	-0.08644695
-3.5306058	Request	-0.10963808
-3.3948267	property	-0.08644692
-3.6470199	define_method	-0.08644695
-3.2268984	options	-0.23194641
-3.6470199	fetch	-0.08644695
-3.6470199	send	-0.08644695
-3.6470199	attr_reader	-0.08644695
-3.5306058	:options	-0.08644695
-3.5306058	:adapter	-0.08644695
-3.5306058	:cacher	-0.08644695
-3.5306058	:path_prefix	-0.08644695
-3.5306058	:verbose	-0.08644695
-3.6470199	require_necessaries	-0.08644695
-3.6470199	@options	-0.08644695
-3.6470199	@headers	-0.08644695
-3.6470199	merge	-0.08644695
-3.5306058	given_headers	-0.08644695
-3.6470199	stringify_keys	-0.08644695
-3.6470199	alias	-0.08644695
-3.5306058	:default_headers	-0.08644692
-3.5306058	access_token	-0.10963808
-3.6470199	:access_token	-0.08644695
-3.5306058	me	-0.08644695
-3.6470199	'/me'	-0.08644695
-3.6470199	conn	-0.08644695
-3.6470199	@conn	-0.08644695
-3.6470199	apply_auth_middleware	-0.08644695
-3.5306058	faraday_builder	-0.08644695
-3.5306058	authorization	-0.08644695
-3.6470199	:Bearer	-0.08644695
-3.3948267	Faraday	-0.10963808
-3.3948267	url	-0.08644692
-3.5306058	builder	-0.08644692
-3.3948267	Middlewares	-0.389651
-3.6470199	use	-0.08644695
-3.5306058	Response	-0.10176929
-3.3948267	verbose	-0.10176929
-3.6470199	FaradayMiddleware	-0.08644695
-3.6470199	Mashify	-0.08644695
-3.6470199	ParseJson	-0.08644695
-3.6470199	:content_type	-0.08644695
-3.6470199	bjson$	-0.08644695
-3.5306058	Cacheable	-0.08644695
-3.5306058	cacher	-0.10963808
-3.5306058	RaiseHttpException	-0.08644695
-3.6470199	RequestSPACE	-0.08644695
-3.6470199	Multipart	-0.08644695
-3.5306058	JsonEncoded	-0.11765208
-3.5306058	PropagateRequestId	-0.11765208
-3.6470199	Low-levelSPACE	-0.08644695
-3.2268984	adapter	-0.08644695
-3.5306058	default_options	-0.08644695
-3.6470199	MissingSPACE	-0.08644695
-3.5306058	endpointSPACE	-0.08644695
-3.6470199	DEFAULTS	-0.08644692
-3.5306058	:net_http	-0.08644692
-3.6470199	'/v1'	-0.08644695
-3.6470199	reset	-0.08644695
-3.6470199	or	-0.08644695
-3.6470199	'ConfigurationSPACE	-0.08644695
-3.6470199	error:SPACE	-0.08644695
-3.6470199	endpoint'	-0.08644695
-3.2268984	name'	-0.10963808
-3.6470199	default_user_agent	-0.08644695
-3.5306058	garage_clientSPACE	-0.08644695
-3.6470199	'Accept'	-0.08644695
-3.6470199	'application/json'	-0.08644695
-3.6470199	'User-Agent'	-0.08644695
-3.6470199	@response	-0.08644695
-3.6470199	case	-0.08644695
-3.6470199	when	-0.08644695
-3.6470199	:[]	-0.08644695
-3.6470199	:method	-0.08644695
-3.6470199	:upcase	-0.08644695
-3.5306058	:url	-0.08644695
-3.5306058	URI	-0.08644695
-3.6470199	HTTP	-0.08644695
-3.6470199	upcase	-0.08644695
-3.5306058	:status	-0.08644695
-3.6470199	:SPACE	-0.08644695
-3.3948267	:body	-0.08644692
-3.5306058	ClientError	-0.08644695
-3.5306058	Unauthorized	-0.08644692
-3.5306058	Forbidden	-0.08644692
-3.5306058	NotFound	-0.08644692
-3.5306058	NotAcceptable	-0.08644692
-3.5306058	Conflict	-0.08644692
-3.5306058	UnsupportedMediaType	-0.08644692
-3.5306058	UnprocessableEntity	-0.08644692
-3.6470199	RemoteSPACE	-0.08644695
-3.6470199	Server	-0.08644695
-3.5306058	ServerError	-0.08644695
-3.5306058	InternalServerError	-0.08644692
-3.5306058	ServiceUnavailable	-0.08644692
-3.5306058	GatewayTimeout	-0.08644692
-3.6470199	GarageClientSPACE	-0.08644695
-3.6470199	UnsupportedResource	-0.08644695
-3.5306058	InvalidResponseType	-0.08644692
-3.6470199	initializer	-0.08644695
-3.5306058	app	-0.08644692
-3.5306058	RailsInitializer	-0.11765208
-3.6470199	set_default_name	-0.08644695
-3.5306058	parent_name	-0.11765208
-3.6470199	underscore	-0.08644695
-3.6470199	MIME_DICT	-0.08644695
-3.6470199	'application/vnd.cookpad.dictionary+json'	-0.08644695
-3.5306058	put	-0.13413781
-3.6470199	:put	-0.08644695
-3.5306058	delete	-0.13413781
-3.6470199	:delete	-0.08644695
-3.2268984	method	-0.10489973
-3.5306058	update	-0.13413781
-3.6470199	timeout	-0.08644695
-3.6470199	:timeout	-0.08644695
-3.6470199	open_timeout	-0.08644695
-3.6470199	:open_timeout	-0.08644695
-3.6470199	:raw	-0.08644695
-3.6470199	?	-0.08644695
-3.6470199	request_with_prefix	-0.08644695
-3.6470199	start_with?	-0.08644695
-3.6470199	request_without_prefix	-0.08644695
-3.6470199	hashie	-0.08644695
-3.5306058	Resource	-0.10489973
-3.6470199	resource?	-0.08644695
-3.5306058	hash	-0.08644695
-3.6470199	has_key?	-0.08644695
-3.6470199	'_links'	-0.08644695
-3.6470199	@data	-0.08644695
-3.3948267	properties	-0.29187003
-3.6470199	@properties	-0.08644695
-3.6470199	:to_sym	-0.08644695
-3.5306058	links	-0.11765208
-3.6470199	@links	-0.08644695
-3.6470199	_links	-0.08644692
-3.5306058	self_path	-0.08644695
-3.6470199	@self_path	-0.08644695
-3.6470199	href	-0.08644695
-3.5306058	destroy	-0.08644695
-3.6470199	method_missing	-0.08644695
-3.6470199	nested_resource_creation_method?	-0.08644695
-3.6470199	sub	-0.08644695
-3.6470199	create_	-0.08644695
-3.6470199	''	-0.08644692
-3.5306058	NoMethodError	-0.08644695
-3.5306058	undefinedSPACE	-0.13413781
-3.6470199	`	-0.08644695
-3.6470199	'SPACE	-0.08644695
-3.6470199	respond_to_missing?	-0.08644695
-3.6470199	include_private	-0.08644695
-3.6470199	Acreate_(.+)	-0.08644695
-3.6470199	z	-0.08644695
-3.6470199	$1	-0.08644695
-3.6470199	to_sym	-0.08644695
-3.6470199	link_header	-0.08644695
-3.6470199	%r{	-0.08644695
-3.6470199	application/vnd	-0.08644695
-3.6470199	.cookpad	-0.08644695
-3.6470199	.dictionary	-0.08644695
-3.6470199	+(json|x-msgpack)	-0.08644695
-3.6470199	ACCEPT_BODY_TYPES	-0.08644695
-3.6470199	NilClass	-0.08644695
-3.6470199	Faraday'sSPACE	-0.08644695
-3.6470199	Net::HttpSPACE	-0.08644695
-3.6470199	adapterSPACE	-0.08644695
-3.5306058	returnsSPACE	-0.08644695
-3.6470199	''SPACE	-0.08644695
-3.6470199	nil.	-0.08644695
-3.6470199	ChangesSPACE	-0.08644695
-3.6470199	faradaySPACE	-0.08644695
-3.6470199	v0.9.0.SPACE	-0.08644695
-3.6470199	faraday/f41ffaabb72d3700338296c79a2084880e6a9843	-0.08644695
-3.6470199	GarageClient::Response#bodySPACE	-0.08644695
-3.6470199	alwaysSPACE	-0.08644695
-3.6470199	becameSPACE	-0.08644695
-3.6470199	v1.0.0.SPACE	-0.08644695
-3.5306058	BecauseSPACE	-0.08644695
-3.6470199	0.9.0SPACE	-0.08644695
-3.6470199	seemsSPACE	-0.08644695
-3.6470199	stable.	-0.08644695
-3.2268984	env	-0.17922273
-3.5306058	type	-0.08644695
-3.6470199	InvalidSPACE	-0.08644695
-3.5306058	typeSPACE	-0.08644695
-3.6470199	):SPACE	-0.08644695
-2.9341877	link	-0.24976613
-3.6470199	@link	-0.08644695
-3.5306058	'Link'	-0.08644695
-3.5306058	total_count	-0.08644695
-3.6470199	@total_count	-0.08644692
-3.6470199	'X-List-TotalCount'	-0.08644695
-3.6470199	@body	-0.08644695
-3.3948267	res	-0.124171466
-3.6470199	dictionary_response?	-0.08644695
-3.5306058	id	-0.13413781
-3.3948267	next_page_path	-0.08644692
-3.5306058	next_page_link	-0.11765208
-3.6470199	try	-0.08644695
-3.6470199	:href	-0.08644695
-3.3948267	prev_page_path	-0.08644692
-3.5306058	prev_page_link	-0.11765208
-3.3948267	first_page_path	-0.08644692
-3.5306058	first_page_link	-0.11765208
-3.3948267	last_page_path	-0.08644692
-3.5306058	last_page_link	-0.11765208
-3.3948267	has_next_page?	-0.08644692
-3.3948267	has_prev_page?	-0.08644692
-3.3948267	has_first_page?	-0.08644692
-3.3948267	has_last_page?	-0.08644692
-3.6470199	parsed_link_header	-0.08644695
-3.6470199	:find_link	-0.08644695
-3.6470199	%w[	-0.08644695
-3.6470199	relSPACE	-0.08644695
-3.6470199	next	-0.08644695
-3.5306058	prev	-0.08644692
-3.6470199	'Content-Type'	-0.08644695
-3.6470199	@parsed_link_header	-0.08644695
-3.6470199	LinkHeader	-0.08644695
-3.6470199	'2.3.3'	-0.08644695
-3.6470199	InheritSPACE	-0.08644695
-3.6470199	abstractSPACE	-0.08644695
-3.5306058	passSPACE	-0.08644695
-3.6470199	clientSPACE	-0.08644695
-3.6470199	responses.	-0.08644695
-3.5306058	Cachers	-0.08644695
-3.5306058	@env	-0.08644692
-3.5306058	call	-0.10963808
-3.6470199	store	-0.08644695
-3.6470199	read_from_cache?	-0.08644695
-3.6470199	Faraday::Response#marshal_dumpSPACE	-0.08644695
-3.6470199	dropSPACE	-0.08644695
-3.6470199	https://github.com/lostisland/faraday/blob/edacd5eb57ea13accab3097649690ae5f48f421a/lib/faraday/response.rb#L74	-0.08644695
-3.6470199	merge!	-0.08644695
-3.6470199	_	-0.08644695
-3.6470199	self_val	-0.08644695
-3.6470199	other_val	-0.08644695
-3.5306058	write	-0.13413781
-3.6470199	written_to_cache?	-0.08644695
-3.6470199	ReturnSPACE	-0.08644695
-3.6470199	booleanSPACE	-0.08644695
-3.6470199	tellSPACE	-0.08644695
-3.6470199	weSPACE	-0.08644695
-3.6470199	not.	-0.08644695
-3.6470199	implementSPACE	-0.08644695
-3.6470199	__method__	-0.08644695
-3.6470199	trySPACE	-0.08644695
-3.6470199	stringSPACE	-0.08644695
-3.6470199	keySPACE	-0.08644695
-3.5306058	givenSPACE	-0.08644695
-3.6470199	response.	-0.08644695
-3.5306058	store-objectSPACE	-0.08644695
-3.6470199	(e.g.SPACE	-0.08644695
-3.6470199	Rails.cache).	-0.08644695
-3.6470199	respondSPACE	-0.08644695
-3.6470199	`fetch(key,SPACE	-0.08644695
-3.6470199	options)`SPACE	-0.08644695
-3.6470199	signature.	-0.08644695
-3.6470199	hashSPACE	-0.08644695
-3.6470199	tableSPACE	-0.08644695
-3.6470199	store'sSPACE	-0.08644695
-3.6470199	options.	-0.08644695
-3.6470199	Middleware	-0.08644695
-3.5306058	json_compatible?	-0.13413781
-3.6470199	:request_headers	-0.08644695
-3.5306058	Content-Type	-0.13413781
-3.5306058	application/json	-0.13413781
-3.6470199	@app	-0.08644695
-3.5306058	:env	-0.08644692
-3.6470199	has_json_compatible_body?	-0.08644695
-3.6470199	has_json_compatible_content_type?	-0.08644695
-3.6470199	has_json_content_type?	-0.08644695
-3.6470199	has_content_type?	-0.08644695
-3.6470199	Thread	-0.08644695
-3.6470199	current	-0.08644695
-3.6470199	:request_id	-0.08644695
-3.6470199	HTTP_X_REQUEST_ID	-0.08644695
-3.6470199	faraday_middleware	-0.08644695
-3.6470199	register_middleware	-0.08644695
-3.6470199	cache	-0.08644695
-3.6470199	@cacher_class	-0.08644692
-3.6470199	validate!	-0.08644695
-3.6470199	ArgumentError	-0.08644695
-3.6470199	cacher_classSPACE	-0.08644695
-3.6470199	.new	-0.08644695
-3.6470199	ClientErrorStatuses	-0.08644695
-3.6470199	400	-0.08644692
-3.5306058	500	-0.10963808
-3.6470199	ServerErrorStatuses	-0.08644695
-3.6470199	600	-0.08644695
-3.6470199	on_complete	-0.08644695
-3.5306058	resp	-0.08644695
-3.6470199	401	-0.08644695
-3.6470199	403	-0.08644695
-3.3948267	404	-0.08644695
-3.6470199	406	-0.08644695
-3.6470199	409	-0.08644695
-3.6470199	415	-0.08644695
-3.6470199	422	-0.08644695
-3.6470199	503	-0.08644695
-3.6470199	504	-0.08644695
-3.6470199	spec_helper	-0.08644695
-3.6470199	.adapter	-0.08644695
-3.6470199	configuration.adapter	-0.08644695
-3.6470199	should	-0.08644695
-3.6470199	.endpoint	-0.08644695
-3.6470199	configuration.endpoint	-0.08644695
-3.6470199	.headers	-0.08644695
-3.6470199	configuration.headers	-0.08644695
-3.6470199	.default_headers	-0.08644695
-3.6470199	.path_prefix	-0.08644695
-3.6470199	configuration.path_prefix	-0.08644695
-3.6470199	.verbose	-0.08644695
-3.6470199	configuration.verbose	-0.08644695
-3.6470199	.configure	-0.08644695
-3.6470199	executesSPACE	-0.08644695
-3.6470199	blockSPACE	-0.08644695
-3.6470199	Host	-0.08644695
-3.6470199	example.com	-0.08644695
-3.6470199	'rubygems'	-0.08644695
-3.6470199	'uri'	-0.08644695
-3.6470199	'rspec'	-0.08644695
-3.6470199	'webmock/rspec'	-0.08644695
-3.6470199	COVERAGE	-0.08644695
-3.6470199	'simplecov'	-0.08644695
-3.6470199	SimpleCov	-0.08644695
-3.6470199	start	-0.08644695
-3.6470199	RUN_CI	-0.08644695
-3.6470199	OnlySPACE	-0.08644695
-3.6470199	mri_19	-0.08644695
-3.6470199	'simplecov-rcov'	-0.08644695
-3.6470199	formatter	-0.08644695
-3.6470199	RcovFormatter	-0.08644695
-3.6470199	https://garage.example.com	-0.08644695
-3.6470199	'garage_client_spec'	-0.08644695
-3.6470199	workaroundSPACE	-0.08644695
-3.6470199	strictlySPACE	-0.08644695
-3.6470199	stubbingSPACE	-0.08644695
-3.6470199	purpose.	-0.08644695
-3.6470199	make_endpoint	-0.08644695
-3.6470199	^(http|https):	-0.08644695
-3.5306058	\/	-0.08644695
-3.6470199	match	-0.08644695
-3.6470199	stub_get	-0.08644695
-3.6470199	stub_request	-0.08644695
-3.6470199	stub_post	-0.08644695
-3.6470199	stub_put	-0.08644695
-3.6470199	stub_delete	-0.08644695
-3.5306058	fixture	-0.13413781
-3.5306058	file	-0.13413781
-3.5306058	prefix	-0.08644695
-3.6470199	'../fixtures'	-0.08644695
-3.6470199	HashWithIndifferentAccess	-0.08644695
-3.6470199	YAML	-0.08644695
-3.6470199	load_file	-0.08644695
-3.6470199	:should	-0.08644695
-3.6470199	ConfigurationSPACE	-0.08644695
-3.3948267	User-Agent	-0.389651
-3.6470199	mySPACE	-0.08644695
-3.6470199	agent	-0.08644695
-3.6470199	sendsSPACE	-0.08644695
-3.3948267	configuredSPACE	-0.11765208
-3.6470199	https://garage.example.com/v1/me	-0.08644695
-3.6470199	'mySPACE	-0.08644695
-3.6470199	agent'	-0.08644695
-3.5306058	to_return	-0.13413781
-3.6470199	200	-0.08644695
-3.6470199	'/v1/me'	-0.08644695
-3.3948267	example	-0.08644692
-3.6470199	instance_variable_set	-0.08644695
-3.5306058	:@configuration	-0.13413781
-3.6470199	configuration_spec	-0.08644695
-3.5306058	:store	-0.08644692
-3.6470199	@table	-0.08644695
-3.6470199	Marshal	-0.08644695
-3.6470199	:cacher_class	-0.08644695
-3.6470199	cache_store	-0.08644695
-3.6470199	@store	-0.08644695
-3.6470199	:class	-0.08644695
-3.6470199	cacher_class	-0.08644695
-3.6470199	caching	-0.08644695
-3.6470199	cache-enabledSPACE	-0.08644695
-3.6470199	GarageClient::Client	-0.08644695
-3.6470199	cachesSPACE	-0.08644695
-3.6470199	alongSPACE	-0.08644695
-3.6470199	passedSPACE	-0.08644695
-3.6470199	cacherSPACE	-0.08644695
-3.6470199	/examples	-0.08644695
-3.6470199	examples.yaml	-0.08644695
-3.6470199	times	-0.08644695
-3.6470199	then	-0.08644695
-3.6470199	to_raise	-0.08644695
-3.6470199	NotSPACE	-0.08644695
-3.6470199	Cache.	-0.08644695
-3.6470199	/example	-0.08644695
-3.6470199	example.yaml	-0.08644695
-3.6470199	CheckSPACE	-0.08644695
-3.6470199	dumpSPACE	-0.08644695
-3.6470199	data.SPACE	-0.08644695
-3.6470199	brokenSPACE	-0.08644695
-3.6470199	versionSPACE	-0.08644695
-3.6470199	faraday.	-0.08644695
-3.6470199	Faraday::ResponseSPACE	-0.08644695
-3.6470199	marshal	-0.08644695
-3.6470199	specify	-0.08644695
-3.6470199	be	-0.08644695
-3.6470199	specSPACE	-0.08644695
-3.3948267	noSPACE	-0.08644692
-3.6470199	longerSPACE	-0.08644695
-3.6470199	needed.SPACE	-0.08644695
-3.6470199	DeleteSPACE	-0.08644695
-3.6470199	'describe'SPACE	-0.08644695
-3.6470199	section!	-0.08644695
-3.6470199	v0.9.1'sSPACE	-0.08644695
-3.5306058	marshalSPACE	-0.13413781
-3.6470199	:res	-0.08644695
-3.6470199	'../fixtures/faraday_0.9.1_response.dump'	-0.08644695
-3.6470199	be_instance_of	-0.08644695
-3.6470199	v0.8.9'sSPACE	-0.08644695
-3.6470199	'../fixtures/faraday_0.8.9_response.dump'	-0.08644695
-3.6470199	'lazinessSPACE	-0.08644695
-3.5306058	properties'	-0.13413781
-3.5306058	'error'	-0.13413781
-3.6470199	options'	-0.08644695
-3.6470199	'http://example.com'	-0.08644695
-3.6470199	evaluateSPACE	-0.08644695
-3.6470199	configuration'	-0.08644695
-3.6470199	'evaluatesSPACE	-0.08644695
-3.6470199	withoutSPACE	-0.08644692
-3.5306058	:adapterSPACE	-0.13413781
-3.5306058	:endpointSPACE	-0.13413781
-3.6470199	http://example.com	-0.08644695
-3.5306058	:path_prefixSPACE	-0.13413781
-3.6470199	/v2	-0.08644695
-3.5306058	:verboseSPACE	-0.13413781
-3.5306058	:headersSPACE	-0.13413781
-3.6470199	text/plain	-0.08644695
-3.5306058	headersSPACE	-0.08644695
-3.5306058	mergedSPACE	-0.08644695
-3.6470199	values	-0.08644695
-3.6470199	Accept	-0.08644695
-3.6470199	garage_client_spec	-0.08644695
-3.6470199	User-AgentSPACE	-0.08644695
-3.5306058	option	-0.13413781
-3.6470199	changedSPACE	-0.08644695
-3.6470199	'abc'	-0.08644695
-3.6470199	'/example'	-0.08644695
-3.6470199	'Accept-Encoding'	-0.08644695
-3.6470199	.*	-0.08644695
-3.6470199	'Authorization'	-0.08644695
-3.6470199	'BearerSPACE	-0.08644695
-3.6470199	abc'	-0.08644695
-3.6470199	'example.yaml'	-0.08644695
-3.6470199	requestsSPACE	-0.08644695
-3.6470199	expectedSPACE	-0.08644695
-3.6470199	beaerSPACE	-0.08644695
-3.6470199	authorizationSPACE	-0.08644695
-3.5306058	header	-0.13413781
-3.6470199	adapter=	-0.08644695
-3.6470199	overwritesSPACE	-0.08644695
-3.6470199	endpoint=	-0.08644695
-3.6470199	headers=	-0.08644695
-3.6470199	updatesSPACE	-0.08644695
-3.6470199	path_prefix=	-0.08644695
-3.6470199	verbose=	-0.08644695
-3.6470199	'#get'	-0.08644695
-2.9341877	resource'	-0.7576278
-3.6470199	'/examples'	-0.08644695
-3.6470199	'examples.yaml'	-0.08644695
-3.3948267	response'	-0.389651
-3.6470199	be_kind_of	-0.08644695
-3.6470199	'/examples/1'	-0.08644695
-3.6470199	'#post'	-0.08644695
-3.6470199	'exampleSPACE	-0.08644695
-3.6470199	'#me'	-0.08644695
-3.6470199	'validation'	-0.08644695
-3.6470199	missing'	-0.08644695
-3.6470199	old	-0.08644695
-3.6470199	RuntimeError'	-0.08644695
-3.5306058	RuntimeError	-0.08644695
-3.6470199	afterSPACE	-0.08644695
-3.3948267	configured	-0.389651
-3.6470199	raisesSPACE	-0.08644695
-3.6470199	isn'tSPACE	-0.08644695
-3.6470199	'configuration_spec'	-0.08644695
-3.6470199	HTTP_ACCEPT	-0.08644695
-3.5306058	default_headers	-0.08644695
-3.5306058	/v1	-0.13413781
-3.6470199	'withoutSPACE	-0.08644692
-3.6470199	argument'	-0.08644695
-3.6470199	GarageClient::Error	-0.08644695
-3.6470199	string'	-0.08644695
-3.6470199	'error_message'	-0.08644695
-3.6470199	GarageClient::ErrorSPACE	-0.08644695
-3.6470199	Faraday::Response'	-0.08644695
-3.6470199	Adapter	-0.08644695
-3.6470199	Test	-0.08644695
-3.6470199	Stubs	-0.08644695
-3.5306058	stub	-0.08644695
-3.6470199	summary'	-0.08644695
-3.6470199	GETSPACE	-0.08644695
-3.6470199	.+SPACE	-0.08644695
-3.6470199	'initializer'	-0.08644695
-3.5306058	:parent_name	-0.13413781
-3.6470199	'Cookpad'	-0.08644695
-3.6470199	receive_message_chain	-0.08644695
-3.6470199	GarageClient.configuration.nameSPACE	-0.08644695
-3.6470199	absent'	-0.08644695
-3.6470199	Rails.application.class.parent_name'	-0.08644695
-3.6470199	present'	-0.08644695
-3.6470199	'cookpad2'	-0.08644695
-3.6470199	overrideSPACE	-0.08644695
-3.6470199	:response_body	-0.08644695
-3.6470199	'body'	-0.08644695
-3.6470199	:resource	-0.08644695
-3.6470199	response_body	-0.08644695
-3.6470199	'#properties'	-0.08644695
-3.6470199	availableSPACE	-0.08644695
-3.6470199	resource	-0.08644695
-3.6470199	:id	-0.08644695
-3.6470199	:created	-0.08644695
-3.6470199	:updated	-0.08644695
-3.6470199	:description	-0.08644695
-3.6470199	:serving	-0.08644695
-3.6470199	:published	-0.08644695
-3.6470199	:edited	-0.08644695
-3.6470199	:tier	-0.08644695
-3.6470199	:ingredients	-0.08644695
-3.6470199	:steps	-0.08644695
-3.6470199	'#links'	-0.08644695
-3.6470199	links'	-0.08644695
-3.6470199	:self	-0.08644695
-3.6470199	:canonical	-0.08644695
-3.6470199	:nested_examples	-0.08644695
-3.6470199	'#update'	-0.08644695
-3.6470199	updatedSPACE	-0.08644695
-3.6470199	'newSPACE	-0.08644695
-3.6470199	'#destroy'	-0.08644695
-3.6470199	204	-0.08644695
-3.6470199	be_nil	-0.08644695
-3.6470199	'createSPACE	-0.08644695
-3.6470199	nestedSPACE	-0.08644695
-3.6470199	'/examples/1/nested_examples'	-0.08644695
-3.6470199	create_nested_examples	-0.08644695
-3.6470199	'name'	-0.08644695
-3.6470199	'property'	-0.08644695
-3.6470199	non-existentSPACE	-0.08644695
-3.6470199	property'	-0.08644695
-3.6470199	'raiseSPACE	-0.08644695
-3.6470199	non_existent_field	-0.08644695
-3.6470199	primitiveSPACE	-0.08644695
-3.3948267	value'	-0.389651
-3.6470199	'recipeSPACE	-0.08644695
-3.6470199	title'	-0.08644695
-3.6470199	user	-0.08644695
-3.6470199	'link'	-0.08644695
-3.6470199	existentSPACE	-0.08644695
-3.6470199	link'	-0.08644695
-3.6470199	nested_examples	-0.08644695
-3.6470199	raw_response	-0.08644695
-3.6470199	:raw_response	-0.08644695
-3.6470199	:link	-0.08644695
-3.6470199	</v1/examples?page=1>;SPACE	-0.08644695
-3.6470199	rel="first",NEWLINE	-0.08644695
-3.6470199	</v1/examples?page=2>;SPACE	-0.08644695
-3.6470199	rel="prev",NEWLINE	-0.08644695
-3.6470199	</v1/examples?page=4>;SPACE	-0.08644695
-3.6470199	rel="next",NEWLINE	-0.08644695
-3.6470199	</v1/examples?page=5>;SPACE	-0.08644695
-3.6470199	rel="last"NEWLINE	-0.08644695
-3.3948267	sameSPACE	-0.10963808
-3.6470199	neithorSPACE	-0.08644695
-3.6470199	propertySPACE	-0.08644695
-3.6470199	norSPACE	-0.08644695
-3.6470199	privateSPACE	-0.08644695
-3.5306058	include_privateSPACE	-0.13413781
-3.6470199	:parsed_link_header	-0.08644695
-3.6470199	Method	-0.08644695
-3.6470199	NameError	-0.08644695
-3.6470199	LinkSPACE	-0.08644695
-3.6470199	Link	-0.08644695
-3.3948267	nextSPACE	-0.11765208
-3.3948267	prevSPACE	-0.11765208
-3.3948267	lastSPACE	-0.11765208
-3.2268984	pageSPACE	-0.5145897
-3.6470199	/v1/examples?page=4	-0.08644695
-3.6470199	/v1/examples?page=2	-0.08644695
-3.6470199	/v1/examples?page=1	-0.08644695
-3.6470199	/v1/examples?page=5	-0.08644695
-3.6470199	:mime_dict	-0.08644695
-3.6470199	'#link'	-0.08644695
-3.6470199	collection'	-0.08644695
-3.5306058	paginatedSPACE	-0.13413781
-3.6470199	resources'	-0.08644695
-3.6470199	'examples_without_pagination.yaml'	-0.08644695
-3.6470199	linkSPACE	-0.08644695
-3.5306058	header'	-0.13413781
-3.6470199	%q{	-0.08644695
-3.6470199	</v1/examples?page=2&per_page=1>;SPACE	-0.08644695
-3.6470199	rel="next"	-0.08644695
-3.6470199	'#total_count'	-0.08644695
-3.6470199	nil'	-0.08644695
-3.6470199	totalSPACE	-0.08644695
-3.6470199	count'	-0.08644695
-3.6470199	'#body'	-0.08644695
-3.6470199	:single_response	-0.08644695
-3.6470199	:array_response	-0.08644695
-3.6470199	:dictionary_response	-0.08644695
-3.6470199	mime_dict	-0.08644695
-3.6470199	single_response	-0.08644695
-3.6470199	arraySPACE	-0.08644695
-3.6470199	array_response	-0.08644695
-3.6470199	array'	-0.08644695
-3.6470199	dictionarySPACE	-0.08644695
-3.6470199	dictionary_response	-0.08644695
-3.6470199	'examples_dictionary.yaml'	-0.08644695
-3.6470199	'1'	-0.08644695
-3.6470199	'delegation'	-0.08644695
-3.6470199	'delegatesSPACE	-0.08644695
-3.6470199	callSPACE	-0.08644695
-3.6470199	size	-0.08644695
-3.6470199	'httpSPACE	-0.08644695
-3.6470199	errors'	-0.08644695
-3.6470199	402	-0.08644695
-3.6470199	405	-0.08644695
-3.6470199	407	-0.08644695
-3.6470199	408	-0.08644695
-3.6470199	502	-0.08644695
-3.6470199	'/examples/xyz'	-0.08644695
-3.6470199	be_a_kind_of	-0.08644695
-3.6470199	be_respond_to	-0.08644695
-3.6470199	'responseSPACE	-0.08644695
-3.6470199	:params	-0.08644695
-3.6470199	Content-Type:SPACE	-0.08644695
-3.6470199	encodesSPACE	-0.08644695
-3.5306058	bodySPACE	-0.08644695
-3.5306058	doesSPACE	-0.08644695
-3.6470199	nothing	-0.08644695
-3.5306058	multipart/form-data	-0.13413781
-3.6470199	https://github.com/bblimke/webmock/commit/93ef063a043a222774fd339b3a56a428feab813f	-0.08644695
-3.6470199	pending	-0.08644695
-3.6470199	'webmockSPACE	-0.08644695
-3.6470199	supportSPACE	-0.08644695
-3.6470199	matchingSPACE	-0.08644695
-3.6470199	multipart/form-data'	-0.08644695
-3.6470199	-------------RubyMultipartPost	-0.08644695
-3.6470199	Content-Disposition:SPACE	-0.08644695
-3.6470199	form-data;SPACE	-0.08644695
-3.6470199	name=	-0.08644695
-3.5306058	\"	-0.08644695
-3.6470199	-------------RubyMultipartPost--	-0.08644695
-3.6470199	\r	-0.08644695
-3.6470199	\n	-0.08644695
-3.6470199	original	-0.08644695
-3.6470199	'request_id'	-0.08644695
-3.6470199	'sendsSPACE	-0.08644695
-3.5306058	request_idSPACE	-0.13413781
-3.6470199	viaSPACE	-0.08644695
-3.5306058	'HTTP_X_REQUEST_ID'	-0.08644695
-3.3948267	request_id'	-0.389651
-3.6470199	sendSPACE	-0.08644695
-3.6470199	'ifSPACE	-0.08644695
-3.6470199	hasSPACE	-0.08644695
-3.6470199	'another_id'	-0.08644695
-3.6470199	overwriteSPACE	-0.08644695

\2-grams:
-1.7435709	NEWLINE </s>	0
-0.47499475	<s> require	-1.1722271
-3.4165094	SPACE require	-0.057267122
-1.1925398	NEWLINE require	-1.3305895
-3.1214807	. require	-0.057267122
-0.30991283	require SPACE	-0.07646741
-1.1952063	SPACE SPACE	-0.111114256
-0.18155548	NEWLINE SPACE	-2.325737
-0.4796851	rescue SPACE	-0.057267122
-0.20152515	module SPACE	-0.08639556
-0.996478	BarbequeClient SPACE	-0.057267122
-0.45468193	class SPACE	-0.057267122
-0.595569	<< SPACE	-0.057267122
-0.4796851	def SPACE	-0.057267122
-0.8747258	configure SPACE	-0.057267122
-0.78643334	yield SPACE	-0.057267122
-0.595569	@config SPACE	-0.057267122
-0.78643334	|| SPACE	-0.057267122
-0.70872056	= SPACE	-0.066336624
-0.94087124	Configuration SPACE	-0.057267122
-0.92666537	new SPACE	-0.057267122
-1.1209618	#SPACE SPACE	-0.15126234
-0.98567134	@paramSPACE SPACE	-0.057267122
-0.92666537	jobSPACE SPACE	-0.057267122
-1.1655749	toSPACE SPACE	-0.057267122
-0.77659535	} SPACE	-0.14548683
-1.0617335	job SPACE	-0.057267122
-0.110635154	: SPACE	-0.15450598
-0.20914762	, SPACE	-0.21752779
-1.1122268	message SPACE	-0.057267122
-0.92666537	queue SPACE	-0.057267122
-1.1003952	nil SPACE	-0.057267122
-0.51202595	) SPACE	-0.8813735
-1.0343808	response SPACE	-0.11761902
-0.90661377	client SPACE	-0.057267122
-0.80832213	body SPACE	-0.16310835
-0.92666537	message_idSPACE SPACE	-0.057267122
-1.046046	status SPACE	-0.057267122
-0.8747258	statusSPACE SPACE	-0.057267122
-1.1142536	message_id SPACE	-0.057267122
-0.94087124	execution SPACE	-0.057267122
-0.595569	@client SPACE	-0.057267122
-1.0075604	Client SPACE	-0.057267122
-1.1097623	application SPACE	-0.057267122
-0.9733741	default_queue SPACE	-0.057267122
-1.0609318	endpoint SPACE	-0.057267122
-0.78643334	job_id SPACE	-0.057267122
-0.595569	raise SPACE	-0.057267122
-0.92666537	NotImplementedError SPACE	-0.057267122
-0.78643334	supported' SPACE	-0.057267122
-0.78643334	@application SPACE	-0.057267122
-0.78643334	@default_queue SPACE	-0.057267122
-0.78643334	@endpoint SPACE	-0.057267122
-0.93307346	params SPACE	-0.15126234
-0.92666537	{ SPACE	-0.057267122
-0.8747258	result SPACE	-0.057267122
-0.8915829	post SPACE	-0.057267122
-0.8915829	'/v2/job_executions' SPACE	-0.057267122
-0.92666537	0 SPACE	-0.057267122
-0.48928437	" SPACE	-1.028788
-0.4796851	if SPACE	-0.06241994
-0.47050864	] SPACE	-0.52005005
-0.8915829	get SPACE	-0.057267122
-0.78643334	private SPACE	-0.057267122
-0.595569	@garage_client SPACE	-0.057267122
-1.162532	GarageClient SPACE	-0.057267122
-1.0041153	path_prefix SPACE	-0.057267122
-0.595569	attr_accessor SPACE	-0.057267122
-1.0137672	* SPACE	-0.057267122
-0.8747258	Executor SPACE	-0.057267122
-0.791511	name SPACE	-0.057267122
-0.78643334	@job SPACE	-0.057267122
-0.78643334	@message SPACE	-0.057267122
-0.78643334	load SPACE	-0.057267122
-0.78643334	@message_id SPACE	-0.057267122
-0.78643334	@queue_name SPACE	-0.057267122
-0.9733741	Base SPACE	-0.057267122
-0.595569	'job_class' SPACE	-0.057267122
-0.78643334	> SPACE	-0.057267122
-0.595569	'job_id' SPACE	-0.057267122
-0.595569	'queue_name' SPACE	-0.057267122
-0.595569	'arguments' SPACE	-0.057267122
-0.9733741	ExponentialRetry SPACE	-0.057267122
-0.78643334	MAX_DELAY_SECONDS SPACE	-0.057267122
-0.78643334	900 SPACE	-0.057267122
-0.78643334	to_i SPACE	-0.057267122
-0.6939573	count SPACE	-0.057267122
-0.595569	** SPACE	-0.057267122
-0.595569	+ SPACE	-0.057267122
-0.595569	15 SPACE	-0.057267122
-0.996478	1 SPACE	-0.057267122
-0.78643334	@count SPACE	-0.057267122
-1.3430349	do SPACE	-0.057267122
-0.6102347	Railtie SPACE	-0.057267122
-0.595569	< SPACE	-0.057267122
-0.595569	rake_tasks SPACE	-0.057267122
-0.78643334	extend SPACE	-0.057267122
-0.78643334	EmptyRetryCount SPACE	-0.057267122
-0.14172812	; SPACE	-0.3763471
-0.78643334	barbeque_retry SPACE	-0.057267122
-0.78643334	retryable_exceptions SPACE	-0.057267122
-0.4796851	exceptions SPACE	-0.057267122
-0.595569	rescue_from SPACE	-0.057267122
-0.78847003	| SPACE	-0.057267122
-0.595569	unless SPACE	-0.057267122
-0.78643334	set' SPACE	-0.057267122
-0.78643334	Runner SPACE	-0.057267122
-0.78643334	set SPACE	-0.057267122
-0.595569	@messages SPACE	-0.057267122
-0.595569	'/v1/job_executions' SPACE	-0.057267122
-1.0962503	request SPACE	-0.057267122
-0.78643334	uuid SPACE	-0.057267122
-0.78643334	pid SPACE	-0.057267122
-0.595569	content_type SPACE	-0.057267122
-0.595569	'/v1/job_executions/:message_id' SPACE	-0.057267122
-0.78643334	wait_thr SPACE	-0.057267122
-0.78643334	nil? SPACE	-0.057267122
-0.595569	elsif SPACE	-0.057267122
-1.1961292	value SPACE	-0.057267122
-0.595569	exitstatus SPACE	-0.057267122
-0.595569	== SPACE	-0.057267122
-0.78643334	'success' SPACE	-0.057267122
-0.595569	'/v1/job_executions/:message_id/retries' SPACE	-0.057267122
-0.595569	puts SPACE	-0.057267122
-0.8747258	VERSION SPACE	-0.057267122
-0.14172812	describe SPACE	-0.06676115
-0.595569	'.configure' SPACE	-0.057267122
-0.8915829	it SPACE	-0.057267122
-0.595569	.config' SPACE	-0.057267122
-0.78643334	expect SPACE	-0.057267122
-0.8747258	'blog' SPACE	-0.057267122
-0.8747258	'https://barbeque.example.com' SPACE	-0.057267122
-0.92666537	to SPACE	-0.057267122
-0.595569	change SPACE	-0.057267122
-0.78643334	map SPACE	-0.057267122
-0.595569	unshift SPACE	-0.057267122
-0.78643334	'test' SPACE	-0.057267122
-0.6102347	around SPACE	-0.15126234
-0.78643334	original_env SPACE	-0.057267122
-0.595569	'cookpad' SPACE	-0.057267122
-0.595569	'main' SPACE	-0.057267122
-0.78643334	:garage_client SPACE	-0.057267122
-0.78643334	before SPACE	-0.057267122
-0.595569	'#create_execution' SPACE	-0.057267122
-0.595569	context SPACE	-0.057267122
-0.595569	alive' SPACE	-0.057267122
-0.595569	'NotifyAuthor' SPACE	-0.057267122
-0.4796851	barbeque' SPACE	-0.15126234
-0.94087124	with SPACE	-0.057267122
-0.595569	queue' SPACE	-0.057267122
-0.595569	'bargain' SPACE	-0.057267122
-0.595569	parameters' SPACE	-0.057267122
-0.14172812	error' SPACE	-0.3763471
-0.8747258	BadRequest SPACE	-0.057267122
-0.595569	GarageClient::Error' SPACE	-0.057267122
-0.8747258	raise_error SPACE	-0.057267122
-0.79776984	Error SPACE	-0.057267122
-0.595569	'#retry_execution' SPACE	-0.057267122
-0.1094408	message' SPACE	-0.4732571
-0.4796851	delay_seconds' SPACE	-0.15126234
-0.595569	delay' SPACE	-0.057267122
-0.595569	901 SPACE	-0.057267122
-0.595569	'#execution' SPACE	-0.057267122
-0.4796851	execution' SPACE	-0.15126234
-0.78643334	eq SPACE	-0.057267122
-0.595569	'#run' SPACE	-0.057267122
-0.78643334	'TestJob' SPACE	-0.057267122
-0.8747258	TestJob SPACE	-0.057267122
-0.595569	job' SPACE	-0.057267122
-0.595569	'#retry' SPACE	-0.057267122
-0.595569	5 SPACE	-0.057267122
-0.595569	backoff' SPACE	-0.057267122
-0.595569	ApplicationController SPACE	-0.057267122
-0.595569	protect_from_forgery SPACE	-0.057267122
-0.78643334	include SPACE	-0.057267122
-0.595569	queue_as SPACE	-0.057267122
-0.78643334	Application SPACE	-0.057267122
-0.595569	'bundler/setup' SPACE	-0.057267122
-0.595569	draw SPACE	-0.057267122
-0.595569	cache_classes SPACE	-0.057267122
-0.595569	eager_load SPACE	-0.057267122
-0.595569	consider_all_requests_local SPACE	-0.057267122
-0.595569	perform_caching SPACE	-0.057267122
-0.595569	raise_delivery_errors SPACE	-0.057267122
-0.595569	deprecation SPACE	-0.057267122
-0.595569	debug SPACE	-0.057267122
-0.595569	digest SPACE	-0.057267122
-0.595569	raise_runtime_errors SPACE	-0.057267122
-0.595569	serve_static_files SPACE	-0.057267122
-0.595569	js_compressor SPACE	-0.057267122
-0.595569	compile SPACE	-0.057267122
-0.595569	log_level SPACE	-0.057267122
-0.595569	fallbacks SPACE	-0.057267122
-0.595569	log_formatter SPACE	-0.057267122
-0.8915829	Logger SPACE	-0.057267122
-0.595569	static_cache_control SPACE	-0.057267122
-0.595569	show_exceptions SPACE	-0.057267122
-0.595569	allow_forgery_protection SPACE	-0.057267122
-0.595569	delivery_method SPACE	-0.057267122
-0.595569	test_order SPACE	-0.057267122
-0.595569	version SPACE	-0.057267122
-1.046046	path SPACE	-0.057267122
-0.595569	queue_adapter SPACE	-0.057267122
-0.595569	cookies_serializer SPACE	-0.057267122
-0.595569	filter_parameters SPACE	-0.057267122
-0.595569	+= SPACE	-0.057267122
-0.595569	session_store SPACE	-0.057267122
-1.0988736	key SPACE	-0.057267122
-0.595569	wrap_parameters SPACE	-0.057267122
-0.595569	'https://dummy.com' SPACE	-0.057267122
-0.595569	tap SPACE	-0.057267122
-0.595569	'.perform_later' SPACE	-0.057267122
-0.595569	'.perform_now' SPACE	-0.057267122
-0.996478	error SPACE	-0.057267122
-0.595569	raised' SPACE	-0.057267122
-0.78643334	perform_now SPACE	-0.057267122
-0.595569	times' SPACE	-0.057267122
-0.4796851	SENSITIVE_PARAMS_REGEXP SPACE	-0.057267122
-0.78643334	TolerantRegexp SPACE	-0.057267122
-0.4796851	SENSITIVE_TABLE_REGEXP SPACE	-0.057267122
-1.19121	/ SPACE	-0.057267122
-0.78643334	FILTERED SPACE	-0.057267122
-0.78643334	@filters SPACE	-0.057267122
-0.78643334	@header_filters SPACE	-0.057267122
-0.8915829	@parameter_filter SPACE	-0.057267122
-0.595569	return SPACE	-0.057267122
-0.595569	&& SPACE	-0.057267122
-1.1003952	data SPACE	-0.057267122
-0.78643334	String SPACE	-0.057267122
-0.595569	ParserError SPACE	-0.057267122
-0.78643334	query SPACE	-0.057267122
-0.8747258	filtered SPACE	-0.057267122
-0.996478	:headers SPACE	-0.057267122
-1.0230955	headers SPACE	-0.11761902
-0.595569	each_key SPACE	-0.057267122
-0.78643334	cookies SPACE	-0.057267122
-0.78643334	old_level SPACE	-0.057267122
-0.8915829	level SPACE	-0.057267122
-0.595569	info SPACE	-0.057267122
-0.595569	any? SPACE	-0.057267122
-0.595569	=== SPACE	-0.057267122
-0.78643334	user_params SPACE	-0.057267122
-0.595569	reject SPACE	-0.057267122
-0.595569	'controller' SPACE	-0.057267122
-0.595569	'action' SPACE	-0.057267122
-0.80475026	keys SPACE	-0.057267122
-0.92666537	first SPACE	-0.057267122
-0.78643334	kind_of? SPACE	-0.057267122
-0.92666537	SensitiveQueryFilter SPACE	-0.057267122
-0.78643334	QUOTED_WORD_REGEXP SPACE	-0.057267122
-0.595569	)'NEWLINE SPACE	-0.057267122
-0.595569	)"NEWLINE SPACE	-0.057267122
-0.595569	)NEWLINE SPACE	-0.057267122
-0.8747258	original_exception SPACE	-0.057267122
-0.595569	SensitiveTableQueryLogSilencer SPACE	-0.057267122
-0.595569	!= SPACE	-0.057267122
-0.78643334	DEBUG SPACE	-0.057267122
-0.78643334	=~ SPACE	-0.057267122
-0.78643334	database_config SPACE	-0.057267122
-0.595569	'adapter' SPACE	-0.057267122
-0.595569	'database' SPACE	-0.057267122
-0.595569	'blouson_test' SPACE	-0.057267122
-0.595569	SecureUser SPACE	-0.057267122
-0.595569	User SPACE	-0.057267122
-0.595569	example_status_persistence_file_path SPACE	-0.057267122
-0.595569	expect_with SPACE	-0.057267122
-0.595569	:rspec SPACE	-0.057267122
-0.595569	syntax SPACE	-0.057267122
-0.595569	include_chain_clauses_in_custom_matcher_descriptions SPACE	-0.057267122
-0.595569	mock_with SPACE	-0.057267122
-0.595569	verify_partial_doubles SPACE	-0.057267122
-0.595569	filter_run SPACE	-0.057267122
-0.595569	run_all_when_everything_filtered SPACE	-0.057267122
-0.595569	warnings SPACE	-0.057267122
-0.595569	default_formatter SPACE	-0.057267122
-0.595569	order SPACE	-0.057267122
-0.595569	srand SPACE	-0.057267122
-0.4796851	(NEWLINE SPACE	-0.15126234
-0.595569	AUTO_INCREMENT,NEWLINE SPACE	-0.057267122
-0.595569	NULL,NEWLINE SPACE	-0.057267122
-0.595569	(`id`),NEWLINE SPACE	-0.057267122
-0.595569	(`email2`)NEWLINE SPACE	-0.057267122
-0.595569	CHARSET=utf8;NEWLINE SPACE	-0.057267122
-0.595569	SQLNEWLINE SPACE	-0.057267122
-0.595569	(`name`)NEWLINE SPACE	-0.057267122
-0.78643334	after SPACE	-0.057267122
-0.595569	'StatementInvalidErrorFilter' SPACE	-0.057267122
-0.78643334	dummy_error SPACE	-0.057267122
-0.595569	prepend SPACE	-0.057267122
-0.4796851	table' SPACE	-0.15126234
-0.595569	'alice@example.com' SPACE	-0.057267122
-0.996478	email SPACE	-0.057267122
-0.595569	statement' SPACE	-0.057267122
-0.595569	not_to SPACE	-0.057267122
-0.595569	queries' SPACE	-0.057267122
-0.595569	query' SPACE	-0.057267122
-0.595569	data' SPACE	-0.057267122
-0.78643334	'alice' SPACE	-0.057267122
-0.595569	values' SPACE	-0.057267122
-0.595569	Mysql2::Error' SPACE	-0.057267122
-0.78643334	be_a SPACE	-0.057267122
-0.595569	to_not SPACE	-0.057267122
-0.595569	Exception#cause' SPACE	-0.057267122
-0.8747258	mysql2_error SPACE	-0.057267122
-0.75322604	:name SPACE	-0.15126234
-0.595569	to_s' SPACE	-0.057267122
-0.595569	each SPACE	-0.057267122
-0.595569	delegate SPACE	-0.057267122
-0.595569	@configuration SPACE	-0.057267122
-0.8747258	property SPACE	-0.057267096
-0.9968596	options SPACE	-0.15126234
-0.595569	attr_reader SPACE	-0.057267122
-0.595569	@options SPACE	-0.057267122
-0.595569	@headers SPACE	-0.057267122
-0.595569	alias SPACE	-0.057267122
-0.8747258	:default_headers SPACE	-0.057267122
-0.6939573	access_token SPACE	-0.057267122
-0.595569	@conn SPACE	-0.057267122
-0.78643334	apply_auth_middleware SPACE	-0.057267122
-0.78643334	authorization SPACE	-0.057267122
-0.595569	use SPACE	-0.057267122
-0.996478	Response SPACE	-0.057267122
-0.996478	verbose SPACE	-0.057267122
-0.595569	:content_type SPACE	-0.057267122
-0.78643334	Cacheable SPACE	-0.057267122
-0.94087124	cacher SPACE	-0.057267122
-0.78643334	RaiseHttpException SPACE	-0.057267122
-0.6102347	JsonEncoded SPACE	-0.057267122
-0.6102347	PropagateRequestId SPACE	-0.057267122
-1.0041153	adapter SPACE	-0.057267122
-0.8747258	DEFAULTS SPACE	-0.057267122
-0.595569	or SPACE	-0.057267122
-0.94087124	name' SPACE	-0.057267122
-0.595569	'Accept' SPACE	-0.057267122
-0.78643334	'User-Agent' SPACE	-0.057267122
-0.595569	@response SPACE	-0.057267122
-0.78643334	case SPACE	-0.057267122
-0.595569	when SPACE	-0.05726715
-0.78643334	:status SPACE	-0.057267122
-0.8747258	:body SPACE	-0.057267122
-0.92666537	ClientError SPACE	-0.057267122
-0.8747258	Unauthorized SPACE	-0.057267122
-0.8747258	Forbidden SPACE	-0.057267122
-0.8747258	NotFound SPACE	-0.057267122
-0.8747258	NotAcceptable SPACE	-0.057267122
-0.8747258	Conflict SPACE	-0.057267122
-0.8747258	UnsupportedMediaType SPACE	-0.057267122
-0.8747258	UnprocessableEntity SPACE	-0.057267122
-0.92666537	ServerError SPACE	-0.057267122
-0.8747258	InternalServerError SPACE	-0.057267122
-0.8747258	ServiceUnavailable SPACE	-0.057267122
-0.8747258	GatewayTimeout SPACE	-0.057267122
-0.595569	UnsupportedResource SPACE	-0.057267122
-0.8747258	InvalidResponseType SPACE	-0.057267122
-0.595569	initializer SPACE	-0.057267122
-0.78643334	MIME_DICT SPACE	-0.057267122
-0.78643334	'application/vnd.cookpad.dictionary+json' SPACE	-0.057267122
-0.595569	timeout SPACE	-0.057267122
-0.595569	open_timeout SPACE	-0.057267122
-0.595569	? SPACE	-0.057267122
-0.78643334	request_without_prefix SPACE	-0.057267122
-0.9733741	Resource SPACE	-0.057267122
-0.595569	@data SPACE	-0.057267122
-0.595569	@properties SPACE	-0.057267122
-0.595569	@links SPACE	-0.057267122
-0.8747258	_links SPACE	-0.057267122
-0.595569	@self_path SPACE	-0.057267122
-0.78643334	ACCEPT_BODY_TYPES SPACE	-0.057267122
-1.1122268	env SPACE	-0.057267122
-0.78643334	type SPACE	-0.057267122
-1.1374655	link SPACE	-0.057267122
-0.595569	@link SPACE	-0.057267122
-0.78643334	'Link' SPACE	-0.057267122
-0.8747258	@total_count SPACE	-0.057267122
-0.595569	@body SPACE	-0.057267122
-0.8747258	prev SPACE	-0.057267122
-0.595569	@parsed_link_header SPACE	-0.057267122
-0.8747258	@env SPACE	-0.057267122
-0.94087124	call SPACE	-0.057267122
-0.78643334	self_val SPACE	-0.057267122
-0.78643334	other_val SPACE	-0.057267122
-0.78643334	has_json_compatible_body? SPACE	-0.057267122
-0.595569	register_middleware SPACE	-0.057267122
-0.8747258	@cacher_class SPACE	-0.057267122
-0.78643334	ClientErrorStatuses SPACE	-0.057267122
-0.8747258	400 SPACE	-0.057267122
-0.94087124	500 SPACE	-0.057267122
-0.78643334	ServerErrorStatuses SPACE	-0.057267122
-0.595569	on_complete SPACE	-0.057267122
-0.78643334	resp SPACE	-0.057267122
-0.78643334	401 SPACE	-0.057267122
-0.78643334	403 SPACE	-0.057267122
-0.92666537	404 SPACE	-0.057267122
-0.78643334	406 SPACE	-0.057267122
-0.78643334	409 SPACE	-0.057267122
-0.78643334	415 SPACE	-0.057267122
-0.78643334	422 SPACE	-0.057267122
-0.78643334	503 SPACE	-0.057267122
-0.78643334	504 SPACE	-0.057267122
-0.595569	should SPACE	-0.057267122
-0.595569	start SPACE	-0.057267122
-0.595569	formatter SPACE	-0.057267122
-0.78643334	prefix SPACE	-0.057267122
-0.595569	agent' SPACE	-0.057267122
-0.78643334	@table SPACE	-0.057267122
-0.78643334	cache_store SPACE	-0.057267122
-0.595569	@store SPACE	-0.057267122
-0.595569	specify SPACE	-0.057267122
-0.595569	be SPACE	-0.057267122
-0.595569	be_instance_of SPACE	-0.057267122
-0.4796851	properties' SPACE	-0.15126234
-0.595569	options' SPACE	-0.057267122
-0.595569	'http://example.com' SPACE	-0.057267122
-0.595569	configuration' SPACE	-0.057267122
-0.595569	'Accept-Encoding' SPACE	-0.057267122
-0.595569	'Authorization' SPACE	-0.057267122
-0.595569	'#get' SPACE	-0.057267122
-0.075260356	resource' SPACE	-0.6193851
-0.20152515	response' SPACE	-0.25140834
-0.595569	'#post' SPACE	-0.057267122
-0.595569	'#me' SPACE	-0.057267122
-0.595569	'validation' SPACE	-0.057267122
-0.595569	missing' SPACE	-0.057267122
-0.595569	RuntimeError' SPACE	-0.057267122
-0.78643334	'configuration_spec' SPACE	-0.057267122
-0.595569	argument' SPACE	-0.057267122
-0.595569	string' SPACE	-0.057267122
-0.595569	Faraday::Response' SPACE	-0.057267122
-0.595569	summary' SPACE	-0.057267122
-0.595569	'initializer' SPACE	-0.057267122
-0.595569	'Cookpad' SPACE	-0.057267122
-0.595569	absent' SPACE	-0.057267122
-0.595569	Rails.application.class.parent_name' SPACE	-0.057267122
-0.595569	present' SPACE	-0.057267122
-0.595569	'cookpad2' SPACE	-0.057267122
-0.595569	'#properties' SPACE	-0.057267122
-0.595569	'#links' SPACE	-0.057267122
-0.595569	links' SPACE	-0.057267122
-0.595569	'#update' SPACE	-0.057267122
-0.595569	'#destroy' SPACE	-0.057267122
-0.595569	'property' SPACE	-0.057267122
-0.595569	property' SPACE	-0.057267122
-0.595569	non_existent_field SPACE	-0.057267122
-0.20152515	value' SPACE	-0.25140834
-0.595569	'link' SPACE	-0.057267122
-0.595569	link' SPACE	-0.057267122
-0.595569	rel="first",NEWLINE SPACE	-0.057267122
-0.595569	rel="prev",NEWLINE SPACE	-0.057267122
-0.595569	rel="next",NEWLINE SPACE	-0.057267122
-0.595569	rel="last"NEWLINE SPACE	-0.057267122
-0.595569	'#link' SPACE	-0.057267122
-0.595569	collection' SPACE	-0.057267122
-0.595569	resources' SPACE	-0.057267122
-0.4796851	header' SPACE	-0.15126234
-0.595569	'#total_count' SPACE	-0.057267122
-0.595569	nil' SPACE	-0.057267122
-0.595569	count' SPACE	-0.057267122
-0.595569	'#body' SPACE	-0.057267122
-0.595569	mime_dict SPACE	-0.057267122
-0.595569	single_response SPACE	-0.057267122
-0.595569	array_response SPACE	-0.057267122
-0.595569	array' SPACE	-0.057267122
-0.595569	dictionary_response SPACE	-0.057267122
-0.595569	'delegation' SPACE	-0.057267122
-0.595569	errors' SPACE	-0.057267122
-0.595569	402 SPACE	-0.057267122
-0.595569	405 SPACE	-0.057267122
-0.595569	407 SPACE	-0.057267122
-0.595569	408 SPACE	-0.057267122
-0.595569	502 SPACE	-0.057267122
-0.595569	pending SPACE	-0.057267122
-0.78643334	original SPACE	-0.057267122
-0.78643334	'request_id' SPACE	-0.057267122
-0.78643334	'HTTP_X_REQUEST_ID' SPACE	-0.057267122
-0.20152515	request_id' SPACE	-0.25140834
-0.595569	'another_id' SPACE	-0.057267122
-3.6654642	SPACE 'barbeque_client/configuration'	-0.057267122
-0.5937059	'barbeque_client/configuration' NEWLINE	-0.057267122
-0.8317465	NEWLINE NEWLINE	-0.715782
-0.5937059	'barbeque_client/client' NEWLINE	-0.057267122
-0.5937059	'barbeque_client/version' NEWLINE	-0.057267122
-0.5937059	'barbeque_client/executor' NEWLINE	-0.057267122
-0.4784058	begin NEWLINE	-0.15126234
-0.5937059	'rails' NEWLINE	-0.057267122
-0.5937059	LoadError NEWLINE	-0.057267122
-0.4784058	else NEWLINE	-0.15126234
-0.5937059	'barbeque_client/railtie' NEWLINE	-0.057267122
-0.30931053	end NEWLINE	-0.1596907
-0.9919645	BarbequeClient NEWLINE	-0.057267122
-1.1344945	self NEWLINE	-0.057267122
-0.8711893	configure NEWLINE	-0.057267122
-0.78354526	yield NEWLINE	-0.057267122
-0.96912396	config NEWLINE	-0.057267122
-1.199044	= NEWLINE	-0.057267122
-0.9369687	Configuration NEWLINE	-0.057267122
-1.2993666	. NEWLINE	-0.057267122
-0.9226817	new NEWLINE	-0.057267122
-0.5937059	enqueue. NEWLINE	-0.057267122
-0.5937059	JSON. NEWLINE	-0.057267122
-0.5937059	job. NEWLINE	-0.057267122
-0.7751226	} NEWLINE	-0.3546698
-1.0957091	( NEWLINE	-0.88823044
-1.0566423	job NEWLINE	-0.057267122
-0.43248025	, NEWLINE	-1.3629475
-0.94614017	message NEWLINE	-0.15126234
-1.0955894	nil NEWLINE	-0.057267122
-0.39270014	) NEWLINE	-1.1936225
-1.0304121	response NEWLINE	-0.11761902
-1.0916293	client NEWLINE	-0.057267122
-1.0598053	body NEWLINE	-0.15126234
-0.88614076	status NEWLINE	-0.15126234
-0.8711893	... NEWLINE	-0.057267122
-0.6519012	message_id NEWLINE	-0.25140834
-0.80194634	Client NEWLINE	-0.15126234
-0.5919278	application NEWLINE	-0.25140834
-0.96912396	default_queue NEWLINE	-0.057267122
-0.9213125	endpoint NEWLINE	-0.15126234
-0.78354526	ActiveJob NEWLINE	-0.057267122
-0.5937059	QueueAdapters NEWLINE	-0.057267122
-0.78354526	BarbequeAdapter NEWLINE	-0.057267122
-0.5937059	5.0 NEWLINE	-0.057267122
-0.5937059	4.2 NEWLINE	-0.057267122
-0.75066096	to_s NEWLINE	-0.11761902
-1.0030962	queue_name NEWLINE	-0.057267122
-0.78354526	supported' NEWLINE	-0.057267122
-0.5937059	'garage_client' NEWLINE	-0.057267122
-0.5937059	'json' NEWLINE	-0.057267122
-0.78354526	initialize NEWLINE	-0.057267122
-0.5937059	[Faraday::Response] NEWLINE	-0.057267122
-0.9226817	{ NEWLINE	-0.057267122
-0.8711893	garage_client NEWLINE	-0.057267122
-0.70008045	retry NEWLINE	-0.15126234
-0.5937059	900s. NEWLINE	-0.057267122
-0.96912396	delay_seconds NEWLINE	-0.057267122
-0.9226817	0 NEWLINE	-0.057267122
-0.7721669	" NEWLINE	-0.6753341
-0.5937059	Garage NEWLINE	-0.057267122
-0.78354526	fields NEWLINE	-0.057267122
-1.1263789	[ NEWLINE	-0.15126234
-0.55603147	] NEWLINE	-0.8198346
-0.78354526	private NEWLINE	-0.057267122
-1.1579748	GarageClient NEWLINE	-0.057267122
-0.9993582	path_prefix NEWLINE	-0.057267122
-0.78354526	'default' NEWLINE	-0.057267122
-0.8711893	Executor NEWLINE	-0.057267122
-1.0298238	name NEWLINE	-0.15126234
-0.8881609	object NEWLINE	-0.057267122
-0.5937059	mesasge_id NEWLINE	-0.057267122
-0.5937059	job_queues.name NEWLINE	-0.057267122
-0.4784058	run NEWLINE	-0.11761902
-0.75066096	Base NEWLINE	-0.11761902
-0.96912396	ExponentialRetry NEWLINE	-0.057267122
-0.78354526	to_i NEWLINE	-0.057267122
-0.5937059	https://github.com/mperham/sidekiq/blob/v4.1.2/lib/sidekiq/middleware/server/retry_jobs.rb#L176-L179 NEWLINE	-0.057267122
-0.5937059	seconds NEWLINE	-0.057267122
-0.9369687	count NEWLINE	-0.057267122
-0.9919645	1 NEWLINE	-0.057267122
-0.12768142	do NEWLINE	-0.6193851
-0.5937059	'active_job/queue_adapters/barbeque_adapter' NEWLINE	-0.057267122
-0.5937059	'barbeque_client/retryable' NEWLINE	-0.057267122
-0.8881609	Railtie NEWLINE	-0.057267122
-0.5937059	'barbeque_client/tasks/execute.rake' NEWLINE	-0.057267122
-0.5937059	'barbeque_client/exponential_retry' NEWLINE	-0.057267122
-0.4784058	Retryable NEWLINE	-0.057267122
-0.5937059	Concern NEWLINE	-0.057267122
-0.8711893	StandardError NEWLINE	-0.057267122
-0.5937059	ClassMethods NEWLINE	-0.057267122
-0.8881609	limit NEWLINE	-0.057267122
-0.96912396	Array NEWLINE	-0.057267122
-0.45483553	| NEWLINE	-0.9784071
-0.96912396	exception NEWLINE	-0.057267122
